digraph Tree {
node [shape=box, style="filled, rounded", color="black", fontname="helvetica"] ;
edge [fontname="helvetica"] ;
0 [label=<highli &le; 0.5<br/>gini = 0.5<br/>samples = 506<br/>value = [404, 396]<br/>class = 2>, fillcolor="#fefdfb"] ;
1 [label=<easier &le; 0.5<br/>gini = 0.5<br/>samples = 503<br/>value = [404, 393]<br/>class = 2>, fillcolor="#fefcfa"] ;
0 -> 1 [labeldistance=2.5, labelangle=45, headlabel="True"] ;
2 [label=<great &le; 0.5<br/>gini = 0.5<br/>samples = 501<br/>value = [404, 387]<br/>class = 2>, fillcolor="#fefaf7"] ;
1 -> 2 ;
3 [label=<far &le; 0.5<br/>gini = 0.495<br/>samples = 452<br/>value = [394, 321]<br/>class = 2>, fillcolor="#fae8da"] ;
2 -> 3 ;
4 [label=<recommend &le; 0.5<br/>gini = 0.494<br/>samples = 448<br/>value = [394, 317]<br/>class = 2>, fillcolor="#fae6d8"] ;
3 -> 4 ;
5 [label=<best &le; 0.5<br/>gini = 0.492<br/>samples = 436<br/>value = [387, 300]<br/>class = 2>, fillcolor="#f9e3d2"] ;
4 -> 5 ;
6 [label=<exchang &le; 0.5<br/>gini = 0.488<br/>samples = 424<br/>value = [386.0, 284.0]<br/>class = 2>, fillcolor="#f8decb"] ;
5 -> 6 ;
7 [label=<protect &le; 0.5<br/>gini = 0.49<br/>samples = 421<br/>value = [380, 284]<br/>class = 2>, fillcolor="#f8dfcd"] ;
6 -> 7 ;
8 [label=<nice &le; 0.5<br/>gini = 0.488<br/>samples = 419<br/>value = [380, 279]<br/>class = 2>, fillcolor="#f8deca"] ;
7 -> 8 ;
9 [label=<access &le; 0.5<br/>gini = 0.484<br/>samples = 410<br/>value = [380, 264]<br/>class = 2>, fillcolor="#f7d9c3"] ;
8 -> 9 ;
10 [label=<data &le; 0.5<br/>gini = 0.482<br/>samples = 407<br/>value = [380, 259]<br/>class = 2>, fillcolor="#f7d7c0"] ;
9 -> 10 ;
11 [label=<tool &le; 0.5<br/>gini = 0.481<br/>samples = 405<br/>value = [380.0, 255.0]<br/>class = 2>, fillcolor="#f6d6be"] ;
10 -> 11 ;
12 [label=<conveni &le; 0.5<br/>gini = 0.479<br/>samples = 402<br/>value = [379.0, 251.0]<br/>class = 2>, fillcolor="#f6d4bc"] ;
11 -> 12 ;
13 [label=<rock &le; 0.5<br/>gini = 0.477<br/>samples = 401<br/>value = [379.0, 246.0]<br/>class = 2>, fillcolor="#f6d3ba"] ;
12 -> 13 ;
14 [label=<valu &le; 0.5<br/>gini = 0.476<br/>samples = 398<br/>value = [379, 242]<br/>class = 2>, fillcolor="#f6d1b7"] ;
13 -> 14 ;
15 [label=<much &le; 0.5<br/>gini = 0.474<br/>samples = 396<br/>value = [379, 239]<br/>class = 2>, fillcolor="#f5d0b6"] ;
14 -> 15 ;
16 [label=<design &le; 0.5<br/>gini = 0.472<br/>samples = 392<br/>value = [378.0, 234.0]<br/>class = 2>, fillcolor="#f5cfb4"] ;
15 -> 16 ;
17 [label=<high &le; 0.5<br/>gini = 0.474<br/>samples = 387<br/>value = [372, 234]<br/>class = 2>, fillcolor="#f5d0b6"] ;
16 -> 17 ;
18 [label=<iam &le; 0.5<br/>gini = 0.472<br/>samples = 384<br/>value = [372.0, 230.0]<br/>class = 2>, fillcolor="#f5cfb3"] ;
17 -> 18 ;
19 [label=<better &le; 0.5<br/>gini = 0.471<br/>samples = 383<br/>value = [372, 227]<br/>class = 2>, fillcolor="#f5ceb2"] ;
18 -> 19 ;
20 [label=<love &le; 0.5<br/>gini = 0.468<br/>samples = 378<br/>value = [370, 220]<br/>class = 2>, fillcolor="#f4ccaf"] ;
19 -> 20 ;
21 [label=<alot &le; 0.5<br/>gini = 0.458<br/>samples = 367<br/>value = [370, 204]<br/>class = 2>, fillcolor="#f3c6a6"] ;
20 -> 21 ;
22 [label=<samsung &le; 0.5<br/>gini = 0.454<br/>samples = 366<br/>value = [370, 198]<br/>class = 2>, fillcolor="#f3c4a3"] ;
21 -> 22 ;
23 [label=<seller &le; 0.5<br/>gini = 0.45<br/>samples = 363<br/>value = [370, 192]<br/>class = 2>, fillcolor="#f2c2a0"] ;
22 -> 23 ;
24 [label=<gadget &le; 0.5<br/>gini = 0.448<br/>samples = 361<br/>value = [370, 189]<br/>class = 2>, fillcolor="#f2c19e"] ;
23 -> 24 ;
25 [label=<awesom &le; 0.5<br/>gini = 0.444<br/>samples = 359<br/>value = [370, 185]<br/>class = 2>, fillcolor="#f2c09c"] ;
24 -> 25 ;
26 [label=<satisfi &le; 0.5<br/>gini = 0.44<br/>samples = 355<br/>value = [369, 179]<br/>class = 2>, fillcolor="#f2be99"] ;
25 -> 26 ;
27 [label=<easi &le; 0.5<br/>gini = 0.438<br/>samples = 354<br/>value = [369, 177]<br/>class = 2>, fillcolor="#f1bd98"] ;
26 -> 27 ;
28 [label=<winner &le; 0.5<br/>gini = 0.433<br/>samples = 349<br/>value = [367, 170]<br/>class = 2>, fillcolor="#f1bb95"] ;
27 -> 28 ;
29 [label=<dial &le; 0.5<br/>gini = 0.431<br/>samples = 348<br/>value = [367, 168]<br/>class = 2>, fillcolor="#f1bb94"] ;
28 -> 29 ;
30 [label=<came &le; 0.5<br/>gini = 0.429<br/>samples = 347<br/>value = [367, 166]<br/>class = 2>, fillcolor="#f1ba93"] ;
29 -> 30 ;
31 [label=<greatno &le; 0.5<br/>gini = 0.424<br/>samples = 343<br/>value = [366, 161]<br/>class = 2>, fillcolor="#f0b890"] ;
30 -> 31 ;
32 [label=<everyth &le; 0.5<br/>gini = 0.422<br/>samples = 342<br/>value = [366, 159]<br/>class = 2>, fillcolor="#f0b88f"] ;
31 -> 32 ;
33 [label=<got &le; 0.5<br/>gini = 0.418<br/>samples = 339<br/>value = [366, 155]<br/>class = 2>, fillcolor="#f0b68d"] ;
32 -> 33 ;
34 [label=<loudest &le; 0.5<br/>gini = 0.413<br/>samples = 334<br/>value = [365, 150]<br/>class = 2>, fillcolor="#f0b58a"] ;
33 -> 34 ;
35 [label=<work &le; 0.5<br/>gini = 0.411<br/>samples = 333<br/>value = [365, 148]<br/>class = 2>, fillcolor="#f0b489"] ;
34 -> 35 ;
36 [label=<sound &le; 0.5<br/>gini = 0.423<br/>samples = 306<br/>value = [325, 142]<br/>class = 2>, fillcolor="#f0b890"] ;
35 -> 36 ;
37 [label=<compliment &le; 0.5<br/>gini = 0.415<br/>samples = 295<br/>value = [320, 133]<br/>class = 2>, fillcolor="#f0b58b"] ;
36 -> 37 ;
38 [label=<self &le; 0.5<br/>gini = 0.41<br/>samples = 294<br/>value = [320, 129]<br/>class = 2>, fillcolor="#efb489"] ;
37 -> 38 ;
39 [label=<extend &le; 0.5<br/>gini = 0.407<br/>samples = 293<br/>value = [320, 127]<br/>class = 2>, fillcolor="#efb388"] ;
38 -> 39 ;
40 [label=<wallet &le; 0.5<br/>gini = 0.404<br/>samples = 292<br/>value = [320.0, 125.0]<br/>class = 2>, fillcolor="#efb286"] ;
39 -> 40 ;
41 [label=<significantli &le; 0.5<br/>gini = 0.403<br/>samples = 291<br/>value = [320.0, 124.0]<br/>class = 2>, fillcolor="#efb286"] ;
40 -> 41 ;
42 [label=<disappoint &le; 0.5<br/>gini = 0.401<br/>samples = 290<br/>value = [320.0, 123.0]<br/>class = 2>, fillcolor="#efb185"] ;
41 -> 42 ;
43 [label=<satisif &le; 0.5<br/>gini = 0.414<br/>samples = 278<br/>value = [297, 123]<br/>class = 2>, fillcolor="#f0b58b"] ;
42 -> 43 ;
44 [label=<alon &le; 0.5<br/>gini = 0.41<br/>samples = 277<br/>value = [297, 120]<br/>class = 2>, fillcolor="#f0b489"] ;
43 -> 44 ;
45 [label=<headset &le; 0.5<br/>gini = 0.408<br/>samples = 276<br/>value = [297, 119]<br/>class = 2>, fillcolor="#efb388"] ;
44 -> 45 ;
46 [label=<excel &le; 0.5<br/>gini = 0.398<br/>samples = 263<br/>value = [289.0, 109.0]<br/>class = 2>, fillcolor="#efb184"] ;
45 -> 46 ;
47 [label=<prompt &le; 0.5<br/>gini = 0.389<br/>samples = 259<br/>value = [289.0, 104.0]<br/>class = 2>, fillcolor="#eeae80"] ;
46 -> 47 ;
48 [label=<blackberri &le; 0.5<br/>gini = 0.387<br/>samples = 258<br/>value = [289, 103]<br/>class = 2>, fillcolor="#eeae80"] ;
47 -> 48 ;
49 [label=<buck &le; 0.5<br/>gini = 0.386<br/>samples = 257<br/>value = [289, 102]<br/>class = 2>, fillcolor="#eead7f"] ;
48 -> 49 ;
50 [label=<superb &le; 0.5<br/>gini = 0.378<br/>samples = 256<br/>value = [289, 98]<br/>class = 2>, fillcolor="#eeac7c"] ;
49 -> 50 ;
51 [label=<definit &le; 0.5<br/>gini = 0.374<br/>samples = 255<br/>value = [289, 96]<br/>class = 2>, fillcolor="#eeab7b"] ;
50 -> 51 ;
52 [label=<rest &le; 0.5<br/>gini = 0.37<br/>samples = 253<br/>value = [289, 94]<br/>class = 2>, fillcolor="#edaa79"] ;
51 -> 52 ;
53 [label=<havent &le; 0.5<br/>gini = 0.366<br/>samples = 252<br/>value = [289, 92]<br/>class = 2>, fillcolor="#eda978"] ;
52 -> 53 ;
54 [label=<almost &le; 0.5<br/>gini = 0.364<br/>samples = 251<br/>value = [289, 91]<br/>class = 2>, fillcolor="#eda977"] ;
53 -> 54 ;
55 [label=<penni &le; 0.5<br/>gini = 0.362<br/>samples = 250<br/>value = [289, 90]<br/>class = 2>, fillcolor="#eda877"] ;
54 -> 55 ;
56 [label=<pretti &le; 0.5<br/>gini = 0.36<br/>samples = 249<br/>value = [289, 89]<br/>class = 2>, fillcolor="#eda876"] ;
55 -> 56 ;
57 [label=<made &le; 0.5<br/>gini = 0.353<br/>samples = 247<br/>value = [289, 86]<br/>class = 2>, fillcolor="#eda674"] ;
56 -> 57 ;
58 [label=<pixel &le; 0.5<br/>gini = 0.347<br/>samples = 242<br/>value = [285, 82]<br/>class = 2>, fillcolor="#eca572"] ;
57 -> 58 ;
59 [label=<load &le; 0.5<br/>gini = 0.342<br/>samples = 241<br/>value = [285, 80]<br/>class = 2>, fillcolor="#eca471"] ;
58 -> 59 ;
60 [label=<mark &le; 0.5<br/>gini = 0.335<br/>samples = 240<br/>value = [285, 77]<br/>class = 2>, fillcolor="#eca36e"] ;
59 -> 60 ;
61 [label=<happier &le; 0.5<br/>gini = 0.332<br/>samples = 239<br/>value = [285, 76]<br/>class = 2>, fillcolor="#eca36e"] ;
60 -> 61 ;
62 [label=<setup &le; 0.5<br/>gini = 0.33<br/>samples = 238<br/>value = [285, 75]<br/>class = 2>, fillcolor="#eca26d"] ;
61 -> 62 ;
63 [label=<strong &le; 0.5<br/>gini = 0.327<br/>samples = 237<br/>value = [285, 74]<br/>class = 2>, fillcolor="#eca26c"] ;
62 -> 63 ;
64 [label=<last &le; 0.5<br/>gini = 0.325<br/>samples = 236<br/>value = [285, 73]<br/>class = 2>, fillcolor="#eca16c"] ;
63 -> 64 ;
65 [label=<treo &le; 0.5<br/>gini = 0.329<br/>samples = 232<br/>value = [279, 73]<br/>class = 2>, fillcolor="#eca26d"] ;
64 -> 65 ;
66 [label=<recept &le; 0.5<br/>gini = 0.332<br/>samples = 230<br/>value = [274, 73]<br/>class = 2>, fillcolor="#eca36e"] ;
65 -> 66 ;
67 [label=<whole &le; 0.5<br/>gini = 0.324<br/>samples = 226<br/>value = [271, 69]<br/>class = 2>, fillcolor="#eca16b"] ;
66 -> 67 ;
68 [label=<own &le; 0.5<br/>gini = 0.321<br/>samples = 225<br/>value = [271, 68]<br/>class = 2>, fillcolor="#eca16b"] ;
67 -> 68 ;
69 [label=<order &le; 0.5<br/>gini = 0.318<br/>samples = 224<br/>value = [271, 67]<br/>class = 2>, fillcolor="#eba06a"] ;
68 -> 69 ;
70 [label=<happi &le; 0.5<br/>gini = 0.312<br/>samples = 222<br/>value = [271, 65]<br/>class = 2>, fillcolor="#eb9f68"] ;
69 -> 70 ;
71 [label=<usual &le; 0.5<br/>gini = 0.302<br/>samples = 217<br/>value = [268, 61]<br/>class = 2>, fillcolor="#eb9e66"] ;
70 -> 71 ;
72 [label=<clear &le; 0.5<br/>gini = 0.299<br/>samples = 216<br/>value = [268, 60]<br/>class = 2>, fillcolor="#eb9d65"] ;
71 -> 72 ;
73 [label=<effort &le; 0.5<br/>gini = 0.289<br/>samples = 214<br/>value = [268, 57]<br/>class = 2>, fillcolor="#eb9c63"] ;
72 -> 73 ;
74 [label=<get &le; 0.5<br/>gini = 0.286<br/>samples = 213<br/>value = [268, 56]<br/>class = 2>, fillcolor="#ea9b62"] ;
73 -> 74 ;
75 [label=<stay &le; 0.5<br/>gini = 0.27<br/>samples = 202<br/>value = [256, 49]<br/>class = 2>, fillcolor="#ea995f"] ;
74 -> 75 ;
76 [label=<enter &le; 0.5<br/>gini = 0.273<br/>samples = 200<br/>value = [251, 49]<br/>class = 2>, fillcolor="#ea9a60"] ;
75 -> 76 ;
77 [label=<year &le; 0.5<br/>gini = 0.27<br/>samples = 199<br/>value = [251, 48]<br/>class = 2>, fillcolor="#ea995f"] ;
76 -> 77 ;
78 [label=<time &le; 0.5<br/>gini = 0.272<br/>samples = 198<br/>value = [248, 48]<br/>class = 2>, fillcolor="#ea995f"] ;
77 -> 78 ;
79 [label=<instruct &le; 0.5<br/>gini = 0.268<br/>samples = 193<br/>value = [243, 46]<br/>class = 2>, fillcolor="#ea995e"] ;
78 -> 79 ;
80 [label=<glass &le; 0.5<br/>gini = 0.273<br/>samples = 189<br/>value = [236.0, 46.0]<br/>class = 2>, fillcolor="#ea9a60"] ;
79 -> 80 ;
81 [label=<comfort &le; 0.5<br/>gini = 0.269<br/>samples = 188<br/>value = [236, 45]<br/>class = 2>, fillcolor="#ea995f"] ;
80 -> 81 ;
82 [label=<audio &le; 0.5<br/>gini = 0.257<br/>samples = 185<br/>value = [236, 42]<br/>class = 2>, fillcolor="#ea975c"] ;
81 -> 82 ;
83 [label=<liter &le; 0.5<br/>gini = 0.246<br/>samples = 182<br/>value = [233, 39]<br/>class = 2>, fillcolor="#e9965a"] ;
82 -> 83 ;
84 [label=<though &le; 0.5<br/>gini = 0.242<br/>samples = 180<br/>value = [232, 38]<br/>class = 2>, fillcolor="#e99659"] ;
83 -> 84 ;
85 [label=<compani &le; 0.5<br/>gini = 0.235<br/>samples = 178<br/>value = [229, 36]<br/>class = 2>, fillcolor="#e99558"] ;
84 -> 85 ;
86 [label=<low &le; 0.5<br/>gini = 0.239<br/>samples = 176<br/>value = [224, 36]<br/>class = 2>, fillcolor="#e99559"] ;
85 -> 86 ;
87 [label=<go &le; 0.5<br/>gini = 0.234<br/>samples = 175<br/>value = [224, 35]<br/>class = 2>, fillcolor="#e99558"] ;
86 -> 87 ;
88 [label=<chargelif &le; 0.5<br/>gini = 0.227<br/>samples = 171<br/>value = [220, 33]<br/>class = 2>, fillcolor="#e99457"] ;
87 -> 88 ;
89 [label=<infatu &le; 0.5<br/>gini = 0.217<br/>samples = 170<br/>value = [220, 31]<br/>class = 2>, fillcolor="#e99355"] ;
88 -> 89 ;
90 [label=<windresist &le; 0.5<br/>gini = 0.211<br/>samples = 169<br/>value = [220, 30]<br/>class = 2>, fillcolor="#e99254"] ;
89 -> 90 ;
91 [label=<spinn &le; 0.5<br/>gini = 0.2<br/>samples = 168<br/>value = [220, 28]<br/>class = 2>, fillcolor="#e89152"] ;
90 -> 91 ;
92 [label=<display &le; 0.5<br/>gini = 0.195<br/>samples = 167<br/>value = [220, 27]<br/>class = 2>, fillcolor="#e89051"] ;
91 -> 92 ;
93 [label=<cell &le; 0.5<br/>gini = 0.189<br/>samples = 166<br/>value = [220, 26]<br/>class = 2>, fillcolor="#e89050"] ;
92 -> 93 ;
94 [label=<charg &le; 0.5<br/>gini = 0.193<br/>samples = 164<br/>value = [214, 26]<br/>class = 2>, fillcolor="#e89051"] ;
93 -> 94 ;
95 [label=<glad &le; 0.5<br/>gini = 0.187<br/>samples = 157<br/>value = [206, 24]<br/>class = 2>, fillcolor="#e89050"] ;
94 -> 95 ;
96 [label=<month &le; 0.5<br/>gini = 0.181<br/>samples = 156<br/>value = [206, 23]<br/>class = 2>, fillcolor="#e88f4f"] ;
95 -> 96 ;
97 [label=<call &le; 0.5<br/>gini = 0.184<br/>samples = 153<br/>value = [202, 23]<br/>class = 2>, fillcolor="#e88f50"] ;
96 -> 97 ;
98 [label=<attract &le; 0.5<br/>gini = 0.191<br/>samples = 146<br/>value = [192, 23]<br/>class = 2>, fillcolor="#e89051"] ;
97 -> 98 ;
99 [label=<alway &le; 0.5<br/>gini = 0.184<br/>samples = 145<br/>value = [192, 22]<br/>class = 2>, fillcolor="#e88f50"] ;
98 -> 99 ;
100 [label=<magic &le; 0.5<br/>gini = 0.179<br/>samples = 143<br/>value = [190, 21]<br/>class = 2>, fillcolor="#e88f4f"] ;
99 -> 100 ;
101 [label=<earphon &le; 0.5<br/>gini = 0.172<br/>samples = 142<br/>value = [190, 20]<br/>class = 2>, fillcolor="#e88e4e"] ;
100 -> 101 ;
102 [label=<cool &le; 0.5<br/>gini = 0.166<br/>samples = 140<br/>value = [189, 19]<br/>class = 2>, fillcolor="#e88e4d"] ;
101 -> 102 ;
103 [label=<must &le; 0.5<br/>gini = 0.151<br/>samples = 138<br/>value = [189, 17]<br/>class = 2>, fillcolor="#e78c4b"] ;
102 -> 103 ;
104 [label=<cheap &le; 0.5<br/>gini = 0.144<br/>samples = 137<br/>value = [189, 16]<br/>class = 2>, fillcolor="#e78c4a"] ;
103 -> 104 ;
105 [label=<custom &le; 0.5<br/>gini = 0.147<br/>samples = 135<br/>value = [184, 16]<br/>class = 2>, fillcolor="#e78c4a"] ;
104 -> 105 ;
106 [label=<toneoveral &le; 0.5<br/>gini = 0.15<br/>samples = 132<br/>value = [180.0, 16.0]<br/>class = 2>, fillcolor="#e78c4b"] ;
105 -> 106 ;
107 [label=<servic &le; 0.5<br/>gini = 0.142<br/>samples = 131<br/>value = [180, 15]<br/>class = 2>, fillcolor="#e78c49"] ;
106 -> 107 ;
108 [label=<qualiti &le; 0.5<br/>gini = 0.136<br/>samples = 128<br/>value = [177.0, 14.0]<br/>class = 2>, fillcolor="#e78b49"] ;
107 -> 108 ;
109 [label=<broken &le; 0.5<br/>gini = 0.131<br/>samples = 125<br/>value = [172, 13]<br/>class = 2>, fillcolor="#e78b48"] ;
108 -> 109 ;
110 [label=<invest &le; 0.5<br/>gini = 0.133<br/>samples = 124<br/>value = [169, 13]<br/>class = 2>, fillcolor="#e78b48"] ;
109 -> 110 ;
111 [label=<good &le; 0.5<br/>gini = 0.124<br/>samples = 123<br/>value = [169, 12]<br/>class = 2>, fillcolor="#e78a47"] ;
110 -> 111 ;
112 [label=<beauti &le; 0.5<br/>gini = 0.11<br/>samples = 116<br/>value = [162, 10]<br/>class = 2>, fillcolor="#e78945"] ;
111 -> 112 ;
113 [label=<put &le; 0.5<br/>gini = 0.1<br/>samples = 115<br/>value = [162, 9]<br/>class = 2>, fillcolor="#e68844"] ;
112 -> 113 ;
114 [label=<doesnt &le; 0.5<br/>gini = 0.102<br/>samples = 113<br/>value = [158, 9]<br/>class = 2>, fillcolor="#e68844"] ;
113 -> 114 ;
115 [label=<problem &le; 0.5<br/>gini = 0.106<br/>samples = 110<br/>value = [151, 9]<br/>class = 2>, fillcolor="#e78945"] ;
114 -> 115 ;
116 [label=<would &le; 0.5<br/>gini = 0.098<br/>samples = 107<br/>value = [147, 8]<br/>class = 2>, fillcolor="#e68844"] ;
115 -> 116 ;
117 [label=<one &le; 0.5<br/>gini = 0.1<br/>samples = 104<br/>value = [144, 8]<br/>class = 2>, fillcolor="#e68844"] ;
116 -> 117 ;
118 [label=<batteri &le; 0.5<br/>gini = 0.102<br/>samples = 101<br/>value = [140, 8]<br/>class = 2>, fillcolor="#e68844"] ;
117 -> 118 ;
119 [label=<rather &le; 0.5<br/>gini = 0.108<br/>samples = 94<br/>value = [132, 8]<br/>class = 2>, fillcolor="#e78945"] ;
118 -> 119 ;
120 [label=<chang &le; 0.5<br/>gini = 0.111<br/>samples = 93<br/>value = [128, 8]<br/>class = 2>, fillcolor="#e78945"] ;
119 -> 120 ;
121 [label=<none &le; 0.5<br/>gini = 0.112<br/>samples = 92<br/>value = [126, 8]<br/>class = 2>, fillcolor="#e78946"] ;
120 -> 121 ;
122 [label=<wast &le; 0.5<br/>gini = 0.115<br/>samples = 91<br/>value = [123, 8]<br/>class = 2>, fillcolor="#e78946"] ;
121 -> 122 ;
123 [label=<use &le; 0.5<br/>gini = 0.124<br/>samples = 85<br/>value = [112, 8]<br/>class = 2>, fillcolor="#e78a47"] ;
122 -> 123 ;
124 [label=<lost &le; 0.5<br/>gini = 0.102<br/>samples = 80<br/>value = [105, 6]<br/>class = 2>, fillcolor="#e68844"] ;
123 -> 124 ;
125 [label=<item &le; 0.5<br/>gini = 0.104<br/>samples = 79<br/>value = [103, 6]<br/>class = 2>, fillcolor="#e78845"] ;
124 -> 125 ;
126 [label=<car &le; 0.5<br/>gini = 0.108<br/>samples = 77<br/>value = [99, 6]<br/>class = 2>, fillcolor="#e78945"] ;
125 -> 126 ;
127 [label=<also &le; 0.5<br/>gini = 0.111<br/>samples = 76<br/>value = [96, 6]<br/>class = 2>, fillcolor="#e78945"] ;
126 -> 127 ;
128 [label=<excrutiatingli &le; 0.5<br/>gini = 0.114<br/>samples = 74<br/>value = [93, 6]<br/>class = 2>, fillcolor="#e78946"] ;
127 -> 128 ;
129 [label=<wrong &le; 0.5<br/>gini = 0.116<br/>samples = 73<br/>value = [91, 6]<br/>class = 2>, fillcolor="#e78946"] ;
128 -> 129 ;
130 [label=<realli &le; 0.5<br/>gini = 0.12<br/>samples = 72<br/>value = [88.0, 6.0]<br/>class = 2>, fillcolor="#e78a46"] ;
129 -> 130 ;
131 [label=<store &le; 0.5<br/>gini = 0.124<br/>samples = 70<br/>value = [84, 6]<br/>class = 2>, fillcolor="#e78a47"] ;
130 -> 131 ;
132 [label=<sweetest &le; 0.5<br/>gini = 0.127<br/>samples = 69<br/>value = [82, 6]<br/>class = 2>, fillcolor="#e78a47"] ;
131 -> 132 ;
133 [label=<recess &le; 0.5<br/>gini = 0.108<br/>samples = 68<br/>value = [82, 5]<br/>class = 2>, fillcolor="#e78945"] ;
132 -> 133 ;
134 [label=<basic &le; 0.5<br/>gini = 0.11<br/>samples = 67<br/>value = [81, 5]<br/>class = 2>, fillcolor="#e78945"] ;
133 -> 134 ;
135 [label=<new &le; 0.5<br/>gini = 0.112<br/>samples = 66<br/>value = [79, 5]<br/>class = 2>, fillcolor="#e78946"] ;
134 -> 135 ;
136 [label=<coupl &le; 0.5<br/>gini = 0.115<br/>samples = 64<br/>value = [77, 5]<br/>class = 2>, fillcolor="#e78946"] ;
135 -> 136 ;
137 [label=<later &le; 0.5<br/>gini = 0.117<br/>samples = 62<br/>value = [75, 5]<br/>class = 2>, fillcolor="#e78946"] ;
136 -> 137 ;
138 [label=<dont &le; 0.5<br/>gini = 0.12<br/>samples = 61<br/>value = [73, 5]<br/>class = 2>, fillcolor="#e78a47"] ;
137 -> 138 ;
139 [label=<cover &le; 0.5<br/>gini = 0.128<br/>samples = 57<br/>value = [68, 5]<br/>class = 2>, fillcolor="#e78a48"] ;
138 -> 139 ;
140 [label=<ever &le; 0.5<br/>gini = 0.131<br/>samples = 56<br/>value = [66, 5]<br/>class = 2>, fillcolor="#e78b48"] ;
139 -> 140 ;
141 [label=<care &le; 0.5<br/>gini = 0.134<br/>samples = 54<br/>value = [64, 5]<br/>class = 2>, fillcolor="#e78b48"] ;
140 -> 141 ;
142 [label=<bought &le; 0.5<br/>gini = 0.136<br/>samples = 53<br/>value = [63, 5]<br/>class = 2>, fillcolor="#e78b49"] ;
141 -> 142 ;
143 [label=<first &le; 0.5<br/>gini = 0.138<br/>samples = 52<br/>value = [62, 5]<br/>class = 2>, fillcolor="#e78b49"] ;
142 -> 143 ;
144 [label=<parti &le; 0.5<br/>gini = 0.14<br/>samples = 51<br/>value = [61, 5]<br/>class = 2>, fillcolor="#e78b49"] ;
143 -> 144 ;
145 [label=<piec &le; 0.5<br/>gini = 0.142<br/>samples = 50<br/>value = [60, 5]<br/>class = 2>, fillcolor="#e78c49"] ;
144 -> 145 ;
146 [label=<comput &le; 0.5<br/>gini = 0.15<br/>samples = 46<br/>value = [56, 5]<br/>class = 2>, fillcolor="#e78c4b"] ;
145 -> 146 ;
147 [label=<procedur &le; 0.5<br/>gini = 0.155<br/>samples = 45<br/>value = [54, 5]<br/>class = 2>, fillcolor="#e78d4b"] ;
146 -> 147 ;
148 [label=<recogn &le; 0.5<br/>gini = 0.158<br/>samples = 44<br/>value = [53, 5]<br/>class = 2>, fillcolor="#e78d4c"] ;
147 -> 148 ;
149 [label=<choic &le; 0.5<br/>gini = 0.16<br/>samples = 43<br/>value = [52, 5]<br/>class = 2>, fillcolor="#e88d4c"] ;
148 -> 149 ;
150 [label=<convers &le; 0.5<br/>gini = 0.165<br/>samples = 42<br/>value = [50, 5]<br/>class = 2>, fillcolor="#e88e4d"] ;
149 -> 150 ;
151 [label=<phone &le; 0.5<br/>gini = 0.168<br/>samples = 41<br/>value = [49, 5]<br/>class = 2>, fillcolor="#e88e4d"] ;
150 -> 151 ;
152 [label=<dissapoint &le; 0.5<br/>gini = 0.177<br/>samples = 38<br/>value = [46, 5]<br/>class = 2>, fillcolor="#e88f4f"] ;
151 -> 152 ;
153 [label=<ngage &le; 0.5<br/>gini = 0.187<br/>samples = 36<br/>value = [43, 5]<br/>class = 2>, fillcolor="#e89050"] ;
152 -> 153 ;
154 [label=<aggrav &le; 0.5<br/>gini = 0.194<br/>samples = 35<br/>value = [41, 5]<br/>class = 2>, fillcolor="#e89051"] ;
153 -> 154 ;
155 [label=<drain &le; 0.5<br/>gini = 0.198<br/>samples = 34<br/>value = [40, 5]<br/>class = 2>, fillcolor="#e89152"] ;
154 -> 155 ;
156 [label=<refund &le; 0.5<br/>gini = 0.206<br/>samples = 32<br/>value = [38, 5]<br/>class = 2>, fillcolor="#e89253"] ;
155 -> 156 ;
157 [label=<point &le; 0.5<br/>gini = 0.214<br/>samples = 31<br/>value = [36, 5]<br/>class = 2>, fillcolor="#e99254"] ;
156 -> 157 ;
158 [label=<figur &le; 0.5<br/>gini = 0.219<br/>samples = 30<br/>value = [35, 5]<br/>class = 2>, fillcolor="#e99355"] ;
157 -> 158 ;
159 [label=<purchas &le; 0.5<br/>gini = 0.229<br/>samples = 29<br/>value = [33, 5]<br/>class = 2>, fillcolor="#e99457"] ;
158 -> 159 ;
160 [label=<hope &le; 0.5<br/>gini = 0.234<br/>samples = 28<br/>value = [32, 5]<br/>class = 2>, fillcolor="#e99558"] ;
159 -> 160 ;
161 [label=<frequent &le; 0.5<br/>gini = 0.239<br/>samples = 27<br/>value = [31, 5]<br/>class = 2>, fillcolor="#e99559"] ;
160 -> 161 ;
162 [label=<problemveri &le; 0.5<br/>gini = 0.257<br/>samples = 26<br/>value = [28, 5]<br/>class = 2>, fillcolor="#ea985c"] ;
161 -> 162 ;
163 [label=<result &le; 0.5<br/>gini = 0.271<br/>samples = 25<br/>value = [26, 5]<br/>class = 2>, fillcolor="#ea995f"] ;
162 -> 163 ;
164 [label=<im &le; 0.5<br/>gini = 0.278<br/>samples = 24<br/>value = [25, 5]<br/>class = 2>, fillcolor="#ea9a61"] ;
163 -> 164 ;
165 [label=<light &le; 0.5<br/>gini = 0.285<br/>samples = 23<br/>value = [24, 5]<br/>class = 2>, fillcolor="#ea9b62"] ;
164 -> 165 ;
166 [label=<impress &le; 0.5<br/>gini = 0.293<br/>samples = 22<br/>value = [23, 5]<br/>class = 2>, fillcolor="#eb9c64"] ;
165 -> 166 ;
167 [label=<clariti &le; 0.5<br/>gini = 0.302<br/>samples = 21<br/>value = [22, 5]<br/>class = 2>, fillcolor="#eb9e66"] ;
166 -> 167 ;
168 [label=<bewar &le; 0.5<br/>gini = 0.32<br/>samples = 20<br/>value = [20, 5]<br/>class = 2>, fillcolor="#eca06a"] ;
167 -> 168 ;
169 [label=<mislead &le; 0.5<br/>gini = 0.34<br/>samples = 19<br/>value = [18, 5]<br/>class = 2>, fillcolor="#eca470"] ;
168 -> 169 ;
170 [label=<advis &le; 0.5<br/>gini = 0.351<br/>samples = 18<br/>value = [17, 5]<br/>class = 2>, fillcolor="#eda673"] ;
169 -> 170 ;
171 [label=<camera &le; 0.5<br/>gini = 0.363<br/>samples = 17<br/>value = [16, 5]<br/>class = 2>, fillcolor="#eda877"] ;
170 -> 171 ;
172 [label=<enough &le; 0.5<br/>gini = 0.375<br/>samples = 16<br/>value = [15, 5]<br/>class = 2>, fillcolor="#eeab7b"] ;
171 -> 172 ;
173 [label=<reliabl &le; 0.5<br/>gini = 0.388<br/>samples = 15<br/>value = [14, 5]<br/>class = 2>, fillcolor="#eeae80"] ;
172 -> 173 ;
174 [label=<fit &le; 0.5<br/>gini = 0.401<br/>samples = 14<br/>value = [13, 5]<br/>class = 2>, fillcolor="#efb185"] ;
173 -> 174 ;
175 [label=<make &le; 0.5<br/>gini = 0.43<br/>samples = 12<br/>value = [11, 5]<br/>class = 2>, fillcolor="#f1ba93"] ;
174 -> 175 ;
176 [label=<want &le; 0.5<br/>gini = 0.444<br/>samples = 11<br/>value = [10, 5]<br/>class = 2>, fillcolor="#f2c09c"] ;
175 -> 176 ;
177 [label=<displeas &le; 0.5<br/>gini = 0.397<br/>samples = 9<br/>value = [8, 3]<br/>class = 2>, fillcolor="#efb083"] ;
176 -> 177 ;
178 [label=<found &le; 0.5<br/>gini = 0.444<br/>samples = 8<br/>value = [6, 3]<br/>class = 2>, fillcolor="#f2c09c"] ;
177 -> 178 ;
179 [label=<incred &le; 0.5<br/>gini = 0.469<br/>samples = 7<br/>value = [5, 3]<br/>class = 2>, fillcolor="#f5cdb0"] ;
178 -> 179 ;
180 [label=<packag &le; 0.5<br/>gini = 0.278<br/>samples = 6<br/>value = [5, 1]<br/>class = 2>, fillcolor="#ea9a61"] ;
179 -> 180 ;
181 [label=<gini = 0.0<br/>samples = 5<br/>value = [5, 0]<br/>class = 2>, fillcolor="#e58139"] ;
180 -> 181 ;
182 [label=<gini = 0.0<br/>samples = 1<br/>value = [0, 1]<br/>class = 1>, fillcolor="#399de5"] ;
180 -> 182 ;
183 [label=<gini = 0.0<br/>samples = 1<br/>value = [0, 2]<br/>class = 1>, fillcolor="#399de5"] ;
179 -> 183 ;
184 [label=<gini = 0.0<br/>samples = 1<br/>value = [1, 0]<br/>class = 2>, fillcolor="#e58139"] ;
178 -> 184 ;
185 [label=<gini = 0.0<br/>samples = 1<br/>value = [2, 0]<br/>class = 2>, fillcolor="#e58139"] ;
177 -> 185 ;
186 [label=<gini = 0.5<br/>samples = 2<br/>value = [2, 2]<br/>class = 2>, fillcolor="#ffffff"] ;
176 -> 186 ;
187 [label=<gini = 0.0<br/>samples = 1<br/>value = [1, 0]<br/>class = 2>, fillcolor="#e58139"] ;
175 -> 187 ;
188 [label=<gini = 0.0<br/>samples = 2<br/>value = [2, 0]<br/>class = 2>, fillcolor="#e58139"] ;
174 -> 188 ;
189 [label=<gini = 0.0<br/>samples = 1<br/>value = [1, 0]<br/>class = 2>, fillcolor="#e58139"] ;
173 -> 189 ;
190 [label=<gini = 0.0<br/>samples = 1<br/>value = [1, 0]<br/>class = 2>, fillcolor="#e58139"] ;
172 -> 190 ;
191 [label=<gini = 0.0<br/>samples = 1<br/>value = [1, 0]<br/>class = 2>, fillcolor="#e58139"] ;
171 -> 191 ;
192 [label=<gini = 0.0<br/>samples = 1<br/>value = [1, 0]<br/>class = 2>, fillcolor="#e58139"] ;
170 -> 192 ;
193 [label=<gini = 0.0<br/>samples = 1<br/>value = [1, 0]<br/>class = 2>, fillcolor="#e58139"] ;
169 -> 193 ;
194 [label=<gini = 0.0<br/>samples = 1<br/>value = [2, 0]<br/>class = 2>, fillcolor="#e58139"] ;
168 -> 194 ;
195 [label=<gini = 0.0<br/>samples = 1<br/>value = [2, 0]<br/>class = 2>, fillcolor="#e58139"] ;
167 -> 195 ;
196 [label=<gini = 0.0<br/>samples = 1<br/>value = [1, 0]<br/>class = 2>, fillcolor="#e58139"] ;
166 -> 196 ;
197 [label=<gini = 0.0<br/>samples = 1<br/>value = [1, 0]<br/>class = 2>, fillcolor="#e58139"] ;
165 -> 197 ;
198 [label=<gini = 0.0<br/>samples = 1<br/>value = [1, 0]<br/>class = 2>, fillcolor="#e58139"] ;
164 -> 198 ;
199 [label=<gini = 0.0<br/>samples = 1<br/>value = [1, 0]<br/>class = 2>, fillcolor="#e58139"] ;
163 -> 199 ;
200 [label=<gini = 0.0<br/>samples = 1<br/>value = [2, 0]<br/>class = 2>, fillcolor="#e58139"] ;
162 -> 200 ;
201 [label=<gini = 0.0<br/>samples = 1<br/>value = [3, 0]<br/>class = 2>, fillcolor="#e58139"] ;
161 -> 201 ;
202 [label=<gini = 0.0<br/>samples = 1<br/>value = [1, 0]<br/>class = 2>, fillcolor="#e58139"] ;
160 -> 202 ;
203 [label=<gini = 0.0<br/>samples = 1<br/>value = [1, 0]<br/>class = 2>, fillcolor="#e58139"] ;
159 -> 203 ;
204 [label=<gini = 0.0<br/>samples = 1<br/>value = [2, 0]<br/>class = 2>, fillcolor="#e58139"] ;
158 -> 204 ;
205 [label=<gini = 0.0<br/>samples = 1<br/>value = [1, 0]<br/>class = 2>, fillcolor="#e58139"] ;
157 -> 205 ;
206 [label=<gini = 0.0<br/>samples = 1<br/>value = [2, 0]<br/>class = 2>, fillcolor="#e58139"] ;
156 -> 206 ;
207 [label=<gini = 0.0<br/>samples = 2<br/>value = [2, 0]<br/>class = 2>, fillcolor="#e58139"] ;
155 -> 207 ;
208 [label=<gini = 0.0<br/>samples = 1<br/>value = [1, 0]<br/>class = 2>, fillcolor="#e58139"] ;
154 -> 208 ;
209 [label=<gini = 0.0<br/>samples = 1<br/>value = [2, 0]<br/>class = 2>, fillcolor="#e58139"] ;
153 -> 209 ;
210 [label=<gini = 0.0<br/>samples = 2<br/>value = [3, 0]<br/>class = 2>, fillcolor="#e58139"] ;
152 -> 210 ;
211 [label=<gini = 0.0<br/>samples = 3<br/>value = [3, 0]<br/>class = 2>, fillcolor="#e58139"] ;
151 -> 211 ;
212 [label=<gini = 0.0<br/>samples = 1<br/>value = [1, 0]<br/>class = 2>, fillcolor="#e58139"] ;
150 -> 212 ;
213 [label=<gini = 0.0<br/>samples = 1<br/>value = [2, 0]<br/>class = 2>, fillcolor="#e58139"] ;
149 -> 213 ;
214 [label=<gini = 0.0<br/>samples = 1<br/>value = [1, 0]<br/>class = 2>, fillcolor="#e58139"] ;
148 -> 214 ;
215 [label=<gini = 0.0<br/>samples = 1<br/>value = [1, 0]<br/>class = 2>, fillcolor="#e58139"] ;
147 -> 215 ;
216 [label=<gini = 0.0<br/>samples = 1<br/>value = [2, 0]<br/>class = 2>, fillcolor="#e58139"] ;
146 -> 216 ;
217 [label=<gini = 0.0<br/>samples = 4<br/>value = [4, 0]<br/>class = 2>, fillcolor="#e58139"] ;
145 -> 217 ;
218 [label=<gini = 0.0<br/>samples = 1<br/>value = [1, 0]<br/>class = 2>, fillcolor="#e58139"] ;
144 -> 218 ;
219 [label=<gini = 0.0<br/>samples = 1<br/>value = [1, 0]<br/>class = 2>, fillcolor="#e58139"] ;
143 -> 219 ;
220 [label=<gini = 0.0<br/>samples = 1<br/>value = [1, 0]<br/>class = 2>, fillcolor="#e58139"] ;
142 -> 220 ;
221 [label=<gini = 0.0<br/>samples = 1<br/>value = [1, 0]<br/>class = 2>, fillcolor="#e58139"] ;
141 -> 221 ;
222 [label=<gini = 0.0<br/>samples = 2<br/>value = [2, 0]<br/>class = 2>, fillcolor="#e58139"] ;
140 -> 222 ;
223 [label=<gini = 0.0<br/>samples = 1<br/>value = [2, 0]<br/>class = 2>, fillcolor="#e58139"] ;
139 -> 223 ;
224 [label=<gini = 0.0<br/>samples = 4<br/>value = [5, 0]<br/>class = 2>, fillcolor="#e58139"] ;
138 -> 224 ;
225 [label=<gini = 0.0<br/>samples = 1<br/>value = [2, 0]<br/>class = 2>, fillcolor="#e58139"] ;
137 -> 225 ;
226 [label=<gini = 0.0<br/>samples = 2<br/>value = [2, 0]<br/>class = 2>, fillcolor="#e58139"] ;
136 -> 226 ;
227 [label=<gini = 0.0<br/>samples = 2<br/>value = [2, 0]<br/>class = 2>, fillcolor="#e58139"] ;
135 -> 227 ;
228 [label=<gini = 0.0<br/>samples = 1<br/>value = [2, 0]<br/>class = 2>, fillcolor="#e58139"] ;
134 -> 228 ;
229 [label=<gini = 0.0<br/>samples = 1<br/>value = [1, 0]<br/>class = 2>, fillcolor="#e58139"] ;
133 -> 229 ;
230 [label=<gini = 0.0<br/>samples = 1<br/>value = [0, 1]<br/>class = 1>, fillcolor="#399de5"] ;
132 -> 230 ;
231 [label=<gini = 0.0<br/>samples = 1<br/>value = [2, 0]<br/>class = 2>, fillcolor="#e58139"] ;
131 -> 231 ;
232 [label=<gini = 0.0<br/>samples = 2<br/>value = [4, 0]<br/>class = 2>, fillcolor="#e58139"] ;
130 -> 232 ;
233 [label=<gini = 0.0<br/>samples = 1<br/>value = [3, 0]<br/>class = 2>, fillcolor="#e58139"] ;
129 -> 233 ;
234 [label=<gini = 0.0<br/>samples = 1<br/>value = [2, 0]<br/>class = 2>, fillcolor="#e58139"] ;
128 -> 234 ;
235 [label=<gini = 0.0<br/>samples = 2<br/>value = [3, 0]<br/>class = 2>, fillcolor="#e58139"] ;
127 -> 235 ;
236 [label=<gini = 0.0<br/>samples = 1<br/>value = [3, 0]<br/>class = 2>, fillcolor="#e58139"] ;
126 -> 236 ;
237 [label=<gini = 0.0<br/>samples = 2<br/>value = [4, 0]<br/>class = 2>, fillcolor="#e58139"] ;
125 -> 237 ;
238 [label=<gini = 0.0<br/>samples = 1<br/>value = [2, 0]<br/>class = 2>, fillcolor="#e58139"] ;
124 -> 238 ;
239 [label=<thing &le; 0.5<br/>gini = 0.346<br/>samples = 5<br/>value = [7, 2]<br/>class = 2>, fillcolor="#eca572"] ;
123 -> 239 ;
240 [label=<case &le; 0.5<br/>gini = 0.408<br/>samples = 4<br/>value = [5, 2]<br/>class = 2>, fillcolor="#efb388"] ;
239 -> 240 ;
241 [label=<dirti &le; 0.5<br/>gini = 0.5<br/>samples = 3<br/>value = [2, 2]<br/>class = 2>, fillcolor="#ffffff"] ;
240 -> 241 ;
242 [label=<receiv &le; 0.5<br/>gini = 0.444<br/>samples = 2<br/>value = [1, 2]<br/>class = 1>, fillcolor="#9ccef2"] ;
241 -> 242 ;
243 [label=<gini = 0.0<br/>samples = 1<br/>value = [0, 2]<br/>class = 1>, fillcolor="#399de5"] ;
242 -> 243 ;
244 [label=<gini = 0.0<br/>samples = 1<br/>value = [1, 0]<br/>class = 2>, fillcolor="#e58139"] ;
242 -> 244 ;
245 [label=<gini = 0.0<br/>samples = 1<br/>value = [1, 0]<br/>class = 2>, fillcolor="#e58139"] ;
241 -> 245 ;
246 [label=<gini = 0.0<br/>samples = 1<br/>value = [3, 0]<br/>class = 2>, fillcolor="#e58139"] ;
240 -> 246 ;
247 [label=<gini = 0.0<br/>samples = 1<br/>value = [2, 0]<br/>class = 2>, fillcolor="#e58139"] ;
239 -> 247 ;
248 [label=<gini = 0.0<br/>samples = 6<br/>value = [11, 0]<br/>class = 2>, fillcolor="#e58139"] ;
122 -> 248 ;
249 [label=<gini = 0.0<br/>samples = 1<br/>value = [3, 0]<br/>class = 2>, fillcolor="#e58139"] ;
121 -> 249 ;
250 [label=<gini = 0.0<br/>samples = 1<br/>value = [2, 0]<br/>class = 2>, fillcolor="#e58139"] ;
120 -> 250 ;
251 [label=<gini = 0.0<br/>samples = 1<br/>value = [4, 0]<br/>class = 2>, fillcolor="#e58139"] ;
119 -> 251 ;
252 [label=<gini = 0.0<br/>samples = 7<br/>value = [8, 0]<br/>class = 2>, fillcolor="#e58139"] ;
118 -> 252 ;
253 [label=<gini = 0.0<br/>samples = 3<br/>value = [4, 0]<br/>class = 2>, fillcolor="#e58139"] ;
117 -> 253 ;
254 [label=<gini = 0.0<br/>samples = 3<br/>value = [3, 0]<br/>class = 2>, fillcolor="#e58139"] ;
116 -> 254 ;
255 [label=<fix &le; 0.5<br/>gini = 0.32<br/>samples = 3<br/>value = [4, 1]<br/>class = 2>, fillcolor="#eca06a"] ;
115 -> 255 ;
256 [label=<gini = 0.0<br/>samples = 2<br/>value = [4, 0]<br/>class = 2>, fillcolor="#e58139"] ;
255 -> 256 ;
257 [label=<gini = 0.0<br/>samples = 1<br/>value = [0, 1]<br/>class = 1>, fillcolor="#399de5"] ;
255 -> 257 ;
258 [label=<gini = 0.0<br/>samples = 3<br/>value = [7, 0]<br/>class = 2>, fillcolor="#e58139"] ;
114 -> 258 ;
259 [label=<gini = 0.0<br/>samples = 2<br/>value = [4, 0]<br/>class = 2>, fillcolor="#e58139"] ;
113 -> 259 ;
260 [label=<gini = 0.0<br/>samples = 1<br/>value = [0, 1]<br/>class = 1>, fillcolor="#399de5"] ;
112 -> 260 ;
261 [label=<pictur &le; 0.5<br/>gini = 0.346<br/>samples = 7<br/>value = [7, 2]<br/>class = 2>, fillcolor="#eca572"] ;
111 -> 261 ;
262 [label=<hat &le; 0.5<br/>gini = 0.375<br/>samples = 6<br/>value = [6, 2]<br/>class = 2>, fillcolor="#eeab7b"] ;
261 -> 262 ;
263 [label=<bargain &le; 0.5<br/>gini = 0.408<br/>samples = 5<br/>value = [5, 2]<br/>class = 2>, fillcolor="#efb388"] ;
262 -> 263 ;
264 [label=<phone &le; 0.5<br/>gini = 0.444<br/>samples = 4<br/>value = [4, 2]<br/>class = 2>, fillcolor="#f2c09c"] ;
263 -> 264 ;
265 [label=<price &le; 0.5<br/>gini = 0.5<br/>samples = 3<br/>value = [2, 2]<br/>class = 2>, fillcolor="#ffffff"] ;
264 -> 265 ;
266 [label=<gini = 0.0<br/>samples = 1<br/>value = [0, 1]<br/>class = 1>, fillcolor="#399de5"] ;
265 -> 266 ;
267 [label=<enough &le; 0.5<br/>gini = 0.444<br/>samples = 2<br/>value = [2, 1]<br/>class = 2>, fillcolor="#f2c09c"] ;
265 -> 267 ;
268 [label=<gini = 0.0<br/>samples = 1<br/>value = [0, 1]<br/>class = 1>, fillcolor="#399de5"] ;
267 -> 268 ;
269 [label=<gini = 0.0<br/>samples = 1<br/>value = [2, 0]<br/>class = 2>, fillcolor="#e58139"] ;
267 -> 269 ;
270 [label=<gini = 0.0<br/>samples = 1<br/>value = [2, 0]<br/>class = 2>, fillcolor="#e58139"] ;
264 -> 270 ;
271 [label=<gini = 0.0<br/>samples = 1<br/>value = [1, 0]<br/>class = 2>, fillcolor="#e58139"] ;
263 -> 271 ;
272 [label=<gini = 0.0<br/>samples = 1<br/>value = [1, 0]<br/>class = 2>, fillcolor="#e58139"] ;
262 -> 272 ;
273 [label=<gini = 0.0<br/>samples = 1<br/>value = [1, 0]<br/>class = 2>, fillcolor="#e58139"] ;
261 -> 273 ;
274 [label=<gini = 0.0<br/>samples = 1<br/>value = [0, 1]<br/>class = 1>, fillcolor="#399de5"] ;
110 -> 274 ;
275 [label=<gini = 0.0<br/>samples = 1<br/>value = [3, 0]<br/>class = 2>, fillcolor="#e58139"] ;
109 -> 275 ;
276 [label=<poor &le; 0.5<br/>gini = 0.278<br/>samples = 3<br/>value = [5, 1]<br/>class = 2>, fillcolor="#ea9a61"] ;
108 -> 276 ;
277 [label=<good &le; 0.5<br/>gini = 0.444<br/>samples = 2<br/>value = [2, 1]<br/>class = 2>, fillcolor="#f2c09c"] ;
276 -> 277 ;
278 [label=<gini = 0.0<br/>samples = 1<br/>value = [2, 0]<br/>class = 2>, fillcolor="#e58139"] ;
277 -> 278 ;
279 [label=<gini = 0.0<br/>samples = 1<br/>value = [0, 1]<br/>class = 1>, fillcolor="#399de5"] ;
277 -> 279 ;
280 [label=<gini = 0.0<br/>samples = 1<br/>value = [3, 0]<br/>class = 2>, fillcolor="#e58139"] ;
276 -> 280 ;
281 [label=<unreli &le; 0.5<br/>gini = 0.375<br/>samples = 3<br/>value = [3, 1]<br/>class = 2>, fillcolor="#eeab7b"] ;
107 -> 281 ;
282 [label=<poor &le; 0.5<br/>gini = 0.5<br/>samples = 2<br/>value = [1, 1]<br/>class = 2>, fillcolor="#ffffff"] ;
281 -> 282 ;
283 [label=<gini = 0.0<br/>samples = 1<br/>value = [0, 1]<br/>class = 1>, fillcolor="#399de5"] ;
282 -> 283 ;
284 [label=<gini = 0.0<br/>samples = 1<br/>value = [1, 0]<br/>class = 2>, fillcolor="#e58139"] ;
282 -> 284 ;
285 [label=<gini = 0.0<br/>samples = 1<br/>value = [2, 0]<br/>class = 2>, fillcolor="#e58139"] ;
281 -> 285 ;
286 [label=<gini = 0.0<br/>samples = 1<br/>value = [0, 1]<br/>class = 1>, fillcolor="#399de5"] ;
106 -> 286 ;
287 [label=<gini = 0.0<br/>samples = 3<br/>value = [4, 0]<br/>class = 2>, fillcolor="#e58139"] ;
105 -> 287 ;
288 [label=<gini = 0.0<br/>samples = 2<br/>value = [5, 0]<br/>class = 2>, fillcolor="#e58139"] ;
104 -> 288 ;
289 [label=<gini = 0.0<br/>samples = 1<br/>value = [0, 1]<br/>class = 1>, fillcolor="#399de5"] ;
103 -> 289 ;
290 [label=<gini = 0.0<br/>samples = 2<br/>value = [0, 2]<br/>class = 1>, fillcolor="#399de5"] ;
102 -> 290 ;
291 [label=<phone &le; 0.5<br/>gini = 0.5<br/>samples = 2<br/>value = [1, 1]<br/>class = 2>, fillcolor="#ffffff"] ;
101 -> 291 ;
292 [label=<gini = 0.0<br/>samples = 1<br/>value = [0, 1]<br/>class = 1>, fillcolor="#399de5"] ;
291 -> 292 ;
293 [label=<gini = 0.0<br/>samples = 1<br/>value = [1, 0]<br/>class = 2>, fillcolor="#e58139"] ;
291 -> 293 ;
294 [label=<gini = 0.0<br/>samples = 1<br/>value = [0, 1]<br/>class = 1>, fillcolor="#399de5"] ;
100 -> 294 ;
295 [label=<problem &le; 0.5<br/>gini = 0.444<br/>samples = 2<br/>value = [2, 1]<br/>class = 2>, fillcolor="#f2c09c"] ;
99 -> 295 ;
296 [label=<gini = 0.0<br/>samples = 1<br/>value = [0, 1]<br/>class = 1>, fillcolor="#399de5"] ;
295 -> 296 ;
297 [label=<gini = 0.0<br/>samples = 1<br/>value = [2, 0]<br/>class = 2>, fillcolor="#e58139"] ;
295 -> 297 ;
298 [label=<gini = 0.0<br/>samples = 1<br/>value = [0, 1]<br/>class = 1>, fillcolor="#399de5"] ;
98 -> 298 ;
299 [label=<gini = 0.0<br/>samples = 7<br/>value = [10, 0]<br/>class = 2>, fillcolor="#e58139"] ;
97 -> 299 ;
300 [label=<gini = 0.0<br/>samples = 3<br/>value = [4, 0]<br/>class = 2>, fillcolor="#e58139"] ;
96 -> 300 ;
301 [label=<gini = 0.0<br/>samples = 1<br/>value = [0, 1]<br/>class = 1>, fillcolor="#399de5"] ;
95 -> 301 ;
302 [label=<phone &le; 0.5<br/>gini = 0.32<br/>samples = 7<br/>value = [8, 2]<br/>class = 2>, fillcolor="#eca06a"] ;
94 -> 302 ;
303 [label=<gini = 0.0<br/>samples = 6<br/>value = [8, 0]<br/>class = 2>, fillcolor="#e58139"] ;
302 -> 303 ;
304 [label=<gini = 0.0<br/>samples = 1<br/>value = [0, 2]<br/>class = 1>, fillcolor="#399de5"] ;
302 -> 304 ;
305 [label=<gini = 0.0<br/>samples = 2<br/>value = [6, 0]<br/>class = 2>, fillcolor="#e58139"] ;
93 -> 305 ;
306 [label=<gini = 0.0<br/>samples = 1<br/>value = [0, 1]<br/>class = 1>, fillcolor="#399de5"] ;
92 -> 306 ;
307 [label=<gini = 0.0<br/>samples = 1<br/>value = [0, 1]<br/>class = 1>, fillcolor="#399de5"] ;
91 -> 307 ;
308 [label=<gini = 0.0<br/>samples = 1<br/>value = [0, 2]<br/>class = 1>, fillcolor="#399de5"] ;
90 -> 308 ;
309 [label=<gini = 0.0<br/>samples = 1<br/>value = [0, 1]<br/>class = 1>, fillcolor="#399de5"] ;
89 -> 309 ;
310 [label=<gini = 0.0<br/>samples = 1<br/>value = [0, 2]<br/>class = 1>, fillcolor="#399de5"] ;
88 -> 310 ;
311 [label=<store &le; 0.5<br/>gini = 0.444<br/>samples = 4<br/>value = [4, 2]<br/>class = 2>, fillcolor="#f2c09c"] ;
87 -> 311 ;
312 [label=<dead &le; 0.5<br/>gini = 0.48<br/>samples = 3<br/>value = [3, 2]<br/>class = 2>, fillcolor="#f6d5bd"] ;
311 -> 312 ;
313 [label=<gini = 0.0<br/>samples = 2<br/>value = [3, 0]<br/>class = 2>, fillcolor="#e58139"] ;
312 -> 313 ;
314 [label=<gini = 0.0<br/>samples = 1<br/>value = [0, 2]<br/>class = 1>, fillcolor="#399de5"] ;
312 -> 314 ;
315 [label=<gini = 0.0<br/>samples = 1<br/>value = [1, 0]<br/>class = 2>, fillcolor="#e58139"] ;
311 -> 315 ;
316 [label=<gini = 0.0<br/>samples = 1<br/>value = [0, 1]<br/>class = 1>, fillcolor="#399de5"] ;
86 -> 316 ;
317 [label=<gini = 0.0<br/>samples = 2<br/>value = [5, 0]<br/>class = 2>, fillcolor="#e58139"] ;
85 -> 317 ;
318 [label=<bill &le; 0.5<br/>gini = 0.48<br/>samples = 2<br/>value = [3, 2]<br/>class = 2>, fillcolor="#f6d5bd"] ;
84 -> 318 ;
319 [label=<gini = 0.0<br/>samples = 1<br/>value = [0, 2]<br/>class = 1>, fillcolor="#399de5"] ;
318 -> 319 ;
320 [label=<gini = 0.0<br/>samples = 1<br/>value = [3, 0]<br/>class = 2>, fillcolor="#e58139"] ;
318 -> 320 ;
321 [label=<phone &le; 0.5<br/>gini = 0.5<br/>samples = 2<br/>value = [1, 1]<br/>class = 2>, fillcolor="#ffffff"] ;
83 -> 321 ;
322 [label=<gini = 0.0<br/>samples = 1<br/>value = [0, 1]<br/>class = 1>, fillcolor="#399de5"] ;
321 -> 322 ;
323 [label=<gini = 0.0<br/>samples = 1<br/>value = [1, 0]<br/>class = 2>, fillcolor="#e58139"] ;
321 -> 323 ;
324 [label=<good &le; 0.5<br/>gini = 0.5<br/>samples = 3<br/>value = [3, 3]<br/>class = 2>, fillcolor="#ffffff"] ;
82 -> 324 ;
325 [label=<gini = 0.0<br/>samples = 2<br/>value = [3, 0]<br/>class = 2>, fillcolor="#e58139"] ;
324 -> 325 ;
326 [label=<gini = 0.0<br/>samples = 1<br/>value = [0, 3]<br/>class = 1>, fillcolor="#399de5"] ;
324 -> 326 ;
327 [label=<gini = 0.0<br/>samples = 3<br/>value = [0, 3]<br/>class = 1>, fillcolor="#399de5"] ;
81 -> 327 ;
328 [label=<gini = 0.0<br/>samples = 1<br/>value = [0, 1]<br/>class = 1>, fillcolor="#399de5"] ;
80 -> 328 ;
329 [label=<gini = 0.0<br/>samples = 4<br/>value = [7, 0]<br/>class = 2>, fillcolor="#e58139"] ;
79 -> 329 ;
330 [label=<doesnt &le; 0.5<br/>gini = 0.408<br/>samples = 5<br/>value = [5, 2]<br/>class = 2>, fillcolor="#efb388"] ;
78 -> 330 ;
331 [label=<come &le; 0.5<br/>gini = 0.48<br/>samples = 4<br/>value = [3, 2]<br/>class = 2>, fillcolor="#f6d5bd"] ;
330 -> 331 ;
332 [label=<qualiti &le; 0.5<br/>gini = 0.5<br/>samples = 3<br/>value = [2, 2]<br/>class = 2>, fillcolor="#ffffff"] ;
331 -> 332 ;
333 [label=<gini = 0.0<br/>samples = 2<br/>value = [2, 0]<br/>class = 2>, fillcolor="#e58139"] ;
332 -> 333 ;
334 [label=<gini = 0.0<br/>samples = 1<br/>value = [0, 2]<br/>class = 1>, fillcolor="#399de5"] ;
332 -> 334 ;
335 [label=<gini = 0.0<br/>samples = 1<br/>value = [1, 0]<br/>class = 2>, fillcolor="#e58139"] ;
331 -> 335 ;
336 [label=<gini = 0.0<br/>samples = 1<br/>value = [2, 0]<br/>class = 2>, fillcolor="#e58139"] ;
330 -> 336 ;
337 [label=<gini = 0.0<br/>samples = 1<br/>value = [3, 0]<br/>class = 2>, fillcolor="#e58139"] ;
77 -> 337 ;
338 [label=<gini = 0.0<br/>samples = 1<br/>value = [0, 1]<br/>class = 1>, fillcolor="#399de5"] ;
76 -> 338 ;
339 [label=<gini = 0.0<br/>samples = 2<br/>value = [5, 0]<br/>class = 2>, fillcolor="#e58139"] ;
75 -> 339 ;
340 [label=<first &le; 0.5<br/>gini = 0.465<br/>samples = 11<br/>value = [12, 7]<br/>class = 2>, fillcolor="#f4caac"] ;
74 -> 340 ;
341 [label=<small &le; 0.5<br/>gini = 0.475<br/>samples = 10<br/>value = [11, 7]<br/>class = 2>, fillcolor="#f6d1b7"] ;
340 -> 341 ;
342 [label=<motorola &le; 0.5<br/>gini = 0.391<br/>samples = 9<br/>value = [11, 4]<br/>class = 2>, fillcolor="#eeaf81"] ;
341 -> 342 ;
343 [label=<pay &le; 0.5<br/>gini = 0.408<br/>samples = 8<br/>value = [10, 4]<br/>class = 2>, fillcolor="#efb388"] ;
342 -> 343 ;
344 [label=<wont &le; 0.5<br/>gini = 0.444<br/>samples = 7<br/>value = [8, 4]<br/>class = 2>, fillcolor="#f2c09c"] ;
343 -> 344 ;
345 [label=<right &le; 0.5<br/>gini = 0.397<br/>samples = 6<br/>value = [8, 3]<br/>class = 2>, fillcolor="#efb083"] ;
344 -> 345 ;
346 [label=<carri &le; 0.5<br/>gini = 0.42<br/>samples = 5<br/>value = [7, 3]<br/>class = 2>, fillcolor="#f0b78e"] ;
345 -> 346 ;
347 [label=<extrem &le; 0.5<br/>gini = 0.219<br/>samples = 4<br/>value = [7, 1]<br/>class = 2>, fillcolor="#e99355"] ;
346 -> 347 ;
348 [label=<replac &le; 0.5<br/>gini = 0.278<br/>samples = 3<br/>value = [5, 1]<br/>class = 2>, fillcolor="#ea9a61"] ;
347 -> 348 ;
349 [label=<sa &le; 0.5<br/>gini = 0.375<br/>samples = 2<br/>value = [3, 1]<br/>class = 2>, fillcolor="#eeab7b"] ;
348 -> 349 ;
350 [label=<gini = 0.0<br/>samples = 1<br/>value = [0, 1]<br/>class = 1>, fillcolor="#399de5"] ;
349 -> 350 ;
351 [label=<gini = 0.0<br/>samples = 1<br/>value = [3, 0]<br/>class = 2>, fillcolor="#e58139"] ;
349 -> 351 ;
352 [label=<gini = 0.0<br/>samples = 1<br/>value = [2, 0]<br/>class = 2>, fillcolor="#e58139"] ;
348 -> 352 ;
353 [label=<gini = 0.0<br/>samples = 1<br/>value = [2, 0]<br/>class = 2>, fillcolor="#e58139"] ;
347 -> 353 ;
354 [label=<gini = 0.0<br/>samples = 1<br/>value = [0, 2]<br/>class = 1>, fillcolor="#399de5"] ;
346 -> 354 ;
355 [label=<gini = 0.0<br/>samples = 1<br/>value = [1, 0]<br/>class = 2>, fillcolor="#e58139"] ;
345 -> 355 ;
356 [label=<gini = 0.0<br/>samples = 1<br/>value = [0, 1]<br/>class = 1>, fillcolor="#399de5"] ;
344 -> 356 ;
357 [label=<gini = 0.0<br/>samples = 1<br/>value = [2, 0]<br/>class = 2>, fillcolor="#e58139"] ;
343 -> 357 ;
358 [label=<gini = 0.0<br/>samples = 1<br/>value = [1, 0]<br/>class = 2>, fillcolor="#e58139"] ;
342 -> 358 ;
359 [label=<gini = 0.0<br/>samples = 1<br/>value = [0, 3]<br/>class = 1>, fillcolor="#399de5"] ;
341 -> 359 ;
360 [label=<gini = 0.0<br/>samples = 1<br/>value = [1, 0]<br/>class = 2>, fillcolor="#e58139"] ;
340 -> 360 ;
361 [label=<gini = 0.0<br/>samples = 1<br/>value = [0, 1]<br/>class = 1>, fillcolor="#399de5"] ;
73 -> 361 ;
362 [label=<gini = 0.0<br/>samples = 2<br/>value = [0, 3]<br/>class = 1>, fillcolor="#399de5"] ;
72 -> 362 ;
363 [label=<gini = 0.0<br/>samples = 1<br/>value = [0, 1]<br/>class = 1>, fillcolor="#399de5"] ;
71 -> 363 ;
364 [label=<batteri &le; 0.5<br/>gini = 0.49<br/>samples = 5<br/>value = [3, 4]<br/>class = 1>, fillcolor="#cee6f8"] ;
70 -> 364 ;
365 [label=<product &le; 0.5<br/>gini = 0.5<br/>samples = 4<br/>value = [3, 3]<br/>class = 2>, fillcolor="#ffffff"] ;
364 -> 365 ;
366 [label=<item &le; 0.5<br/>gini = 0.48<br/>samples = 3<br/>value = [3, 2]<br/>class = 2>, fillcolor="#f6d5bd"] ;
365 -> 366 ;
367 [label=<gini = 0.444<br/>samples = 2<br/>value = [1, 2]<br/>class = 1>, fillcolor="#9ccef2"] ;
366 -> 367 ;
368 [label=<gini = 0.0<br/>samples = 1<br/>value = [2, 0]<br/>class = 2>, fillcolor="#e58139"] ;
366 -> 368 ;
369 [label=<gini = 0.0<br/>samples = 1<br/>value = [0, 1]<br/>class = 1>, fillcolor="#399de5"] ;
365 -> 369 ;
370 [label=<gini = 0.0<br/>samples = 1<br/>value = [0, 1]<br/>class = 1>, fillcolor="#399de5"] ;
364 -> 370 ;
371 [label=<gini = 0.0<br/>samples = 2<br/>value = [0, 2]<br/>class = 1>, fillcolor="#399de5"] ;
69 -> 371 ;
372 [label=<gini = 0.0<br/>samples = 1<br/>value = [0, 1]<br/>class = 1>, fillcolor="#399de5"] ;
68 -> 372 ;
373 [label=<gini = 0.0<br/>samples = 1<br/>value = [0, 1]<br/>class = 1>, fillcolor="#399de5"] ;
67 -> 373 ;
374 [label=<bar &le; 0.5<br/>gini = 0.49<br/>samples = 4<br/>value = [3, 4]<br/>class = 1>, fillcolor="#cee6f8"] ;
66 -> 374 ;
375 [label=<bought &le; 0.5<br/>gini = 0.444<br/>samples = 3<br/>value = [2, 4]<br/>class = 1>, fillcolor="#9ccef2"] ;
374 -> 375 ;
376 [label=<good &le; 0.5<br/>gini = 0.32<br/>samples = 2<br/>value = [1, 4]<br/>class = 1>, fillcolor="#6ab6ec"] ;
375 -> 376 ;
377 [label=<gini = 0.0<br/>samples = 1<br/>value = [1, 0]<br/>class = 2>, fillcolor="#e58139"] ;
376 -> 377 ;
378 [label=<gini = 0.0<br/>samples = 1<br/>value = [0, 4]<br/>class = 1>, fillcolor="#399de5"] ;
376 -> 378 ;
379 [label=<gini = 0.0<br/>samples = 1<br/>value = [1, 0]<br/>class = 2>, fillcolor="#e58139"] ;
375 -> 379 ;
380 [label=<gini = 0.0<br/>samples = 1<br/>value = [1, 0]<br/>class = 2>, fillcolor="#e58139"] ;
374 -> 380 ;
381 [label=<gini = 0.0<br/>samples = 2<br/>value = [5, 0]<br/>class = 2>, fillcolor="#e58139"] ;
65 -> 381 ;
382 [label=<gini = 0.0<br/>samples = 4<br/>value = [6, 0]<br/>class = 2>, fillcolor="#e58139"] ;
64 -> 382 ;
383 [label=<gini = 0.0<br/>samples = 1<br/>value = [0, 1]<br/>class = 1>, fillcolor="#399de5"] ;
63 -> 383 ;
384 [label=<gini = 0.0<br/>samples = 1<br/>value = [0, 1]<br/>class = 1>, fillcolor="#399de5"] ;
62 -> 384 ;
385 [label=<gini = 0.0<br/>samples = 1<br/>value = [0, 1]<br/>class = 1>, fillcolor="#399de5"] ;
61 -> 385 ;
386 [label=<gini = 0.0<br/>samples = 1<br/>value = [0, 1]<br/>class = 1>, fillcolor="#399de5"] ;
60 -> 386 ;
387 [label=<gini = 0.0<br/>samples = 1<br/>value = [0, 3]<br/>class = 1>, fillcolor="#399de5"] ;
59 -> 387 ;
388 [label=<gini = 0.0<br/>samples = 1<br/>value = [0, 2]<br/>class = 1>, fillcolor="#399de5"] ;
58 -> 388 ;
389 [label=<decis &le; 0.5<br/>gini = 0.5<br/>samples = 5<br/>value = [4, 4]<br/>class = 2>, fillcolor="#ffffff"] ;
57 -> 389 ;
390 [label=<small &le; 0.5<br/>gini = 0.444<br/>samples = 4<br/>value = [4, 2]<br/>class = 2>, fillcolor="#f2c09c"] ;
389 -> 390 ;
391 [label=<purchas &le; 0.5<br/>gini = 0.48<br/>samples = 3<br/>value = [3, 2]<br/>class = 2>, fillcolor="#f6d5bd"] ;
390 -> 391 ;
392 [label=<sturdi &le; 0.5<br/>gini = 0.444<br/>samples = 2<br/>value = [1, 2]<br/>class = 1>, fillcolor="#9ccef2"] ;
391 -> 392 ;
393 [label=<gini = 0.0<br/>samples = 1<br/>value = [1, 0]<br/>class = 2>, fillcolor="#e58139"] ;
392 -> 393 ;
394 [label=<gini = 0.0<br/>samples = 1<br/>value = [0, 2]<br/>class = 1>, fillcolor="#399de5"] ;
392 -> 394 ;
395 [label=<gini = 0.0<br/>samples = 1<br/>value = [2, 0]<br/>class = 2>, fillcolor="#e58139"] ;
391 -> 395 ;
396 [label=<gini = 0.0<br/>samples = 1<br/>value = [1, 0]<br/>class = 2>, fillcolor="#e58139"] ;
390 -> 396 ;
397 [label=<gini = 0.0<br/>samples = 1<br/>value = [0, 2]<br/>class = 1>, fillcolor="#399de5"] ;
389 -> 397 ;
398 [label=<gini = 0.0<br/>samples = 2<br/>value = [0, 3]<br/>class = 1>, fillcolor="#399de5"] ;
56 -> 398 ;
399 [label=<gini = 0.0<br/>samples = 1<br/>value = [0, 1]<br/>class = 1>, fillcolor="#399de5"] ;
55 -> 399 ;
400 [label=<gini = 0.0<br/>samples = 1<br/>value = [0, 1]<br/>class = 1>, fillcolor="#399de5"] ;
54 -> 400 ;
401 [label=<gini = 0.0<br/>samples = 1<br/>value = [0, 1]<br/>class = 1>, fillcolor="#399de5"] ;
53 -> 401 ;
402 [label=<gini = 0.0<br/>samples = 1<br/>value = [0, 2]<br/>class = 1>, fillcolor="#399de5"] ;
52 -> 402 ;
403 [label=<gini = 0.0<br/>samples = 2<br/>value = [0, 2]<br/>class = 1>, fillcolor="#399de5"] ;
51 -> 403 ;
404 [label=<gini = 0.0<br/>samples = 1<br/>value = [0, 2]<br/>class = 1>, fillcolor="#399de5"] ;
50 -> 404 ;
405 [label=<gini = 0.0<br/>samples = 1<br/>value = [0, 4]<br/>class = 1>, fillcolor="#399de5"] ;
49 -> 405 ;
406 [label=<gini = 0.0<br/>samples = 1<br/>value = [0, 1]<br/>class = 1>, fillcolor="#399de5"] ;
48 -> 406 ;
407 [label=<gini = 0.0<br/>samples = 1<br/>value = [0, 1]<br/>class = 1>, fillcolor="#399de5"] ;
47 -> 407 ;
408 [label=<gini = 0.0<br/>samples = 4<br/>value = [0, 5]<br/>class = 1>, fillcolor="#399de5"] ;
46 -> 408 ;
409 [label=<year &le; 0.5<br/>gini = 0.494<br/>samples = 13<br/>value = [8, 10]<br/>class = 1>, fillcolor="#d7ebfa"] ;
45 -> 409 ;
410 [label=<plantron &le; 0.5<br/>gini = 0.484<br/>samples = 12<br/>value = [7, 10]<br/>class = 1>, fillcolor="#c4e2f7"] ;
409 -> 410 ;
411 [label=<absolut &le; 0.5<br/>gini = 0.492<br/>samples = 11<br/>value = [7, 9]<br/>class = 1>, fillcolor="#d3e9f9"] ;
410 -> 411 ;
412 [label=<earbud &le; 0.5<br/>gini = 0.48<br/>samples = 10<br/>value = [6, 9]<br/>class = 1>, fillcolor="#bddef6"] ;
411 -> 412 ;
413 [label=<cord &le; 0.5<br/>gini = 0.459<br/>samples = 9<br/>value = [5, 9]<br/>class = 1>, fillcolor="#a7d3f3"] ;
412 -> 413 ;
414 [label=<ear &le; 0.5<br/>gini = 0.473<br/>samples = 8<br/>value = [5, 8]<br/>class = 1>, fillcolor="#b5daf5"] ;
413 -> 414 ;
415 [label=<purchas &le; 0.5<br/>gini = 0.32<br/>samples = 7<br/>value = [2, 8]<br/>class = 1>, fillcolor="#6ab6ec"] ;
414 -> 415 ;
416 [label=<good &le; 0.5<br/>gini = 0.346<br/>samples = 6<br/>value = [2, 7]<br/>class = 1>, fillcolor="#72b9ec"] ;
415 -> 416 ;
417 [label=<dualpurpos &le; 0.5<br/>gini = 0.375<br/>samples = 5<br/>value = [2, 6]<br/>class = 1>, fillcolor="#7bbeee"] ;
416 -> 417 ;
418 [label=<wireless &le; 0.5<br/>gini = 0.444<br/>samples = 4<br/>value = [2, 4]<br/>class = 1>, fillcolor="#9ccef2"] ;
417 -> 418 ;
419 [label=<excit &le; 0.5<br/>gini = 0.32<br/>samples = 3<br/>value = [1, 4]<br/>class = 1>, fillcolor="#6ab6ec"] ;
418 -> 419 ;
420 [label=<bad &le; 0.5<br/>gini = 0.375<br/>samples = 2<br/>value = [1, 3]<br/>class = 1>, fillcolor="#7bbeee"] ;
419 -> 420 ;
421 [label=<gini = 0.0<br/>samples = 1<br/>value = [0, 3]<br/>class = 1>, fillcolor="#399de5"] ;
420 -> 421 ;
422 [label=<gini = 0.0<br/>samples = 1<br/>value = [1, 0]<br/>class = 2>, fillcolor="#e58139"] ;
420 -> 422 ;
423 [label=<gini = 0.0<br/>samples = 1<br/>value = [0, 1]<br/>class = 1>, fillcolor="#399de5"] ;
419 -> 423 ;
424 [label=<gini = 0.0<br/>samples = 1<br/>value = [1, 0]<br/>class = 2>, fillcolor="#e58139"] ;
418 -> 424 ;
425 [label=<gini = 0.0<br/>samples = 1<br/>value = [0, 2]<br/>class = 1>, fillcolor="#399de5"] ;
417 -> 425 ;
426 [label=<gini = 0.0<br/>samples = 1<br/>value = [0, 1]<br/>class = 1>, fillcolor="#399de5"] ;
416 -> 426 ;
427 [label=<gini = 0.0<br/>samples = 1<br/>value = [0, 1]<br/>class = 1>, fillcolor="#399de5"] ;
415 -> 427 ;
428 [label=<gini = 0.0<br/>samples = 1<br/>value = [3, 0]<br/>class = 2>, fillcolor="#e58139"] ;
414 -> 428 ;
429 [label=<gini = 0.0<br/>samples = 1<br/>value = [0, 1]<br/>class = 1>, fillcolor="#399de5"] ;
413 -> 429 ;
430 [label=<gini = 0.0<br/>samples = 1<br/>value = [1, 0]<br/>class = 2>, fillcolor="#e58139"] ;
412 -> 430 ;
431 [label=<gini = 0.0<br/>samples = 1<br/>value = [1, 0]<br/>class = 2>, fillcolor="#e58139"] ;
411 -> 431 ;
432 [label=<gini = 0.0<br/>samples = 1<br/>value = [0, 1]<br/>class = 1>, fillcolor="#399de5"] ;
410 -> 432 ;
433 [label=<gini = 0.0<br/>samples = 1<br/>value = [1, 0]<br/>class = 2>, fillcolor="#e58139"] ;
409 -> 433 ;
434 [label=<gini = 0.0<br/>samples = 1<br/>value = [0, 1]<br/>class = 1>, fillcolor="#399de5"] ;
44 -> 434 ;
435 [label=<gini = 0.0<br/>samples = 1<br/>value = [0, 3]<br/>class = 1>, fillcolor="#399de5"] ;
43 -> 435 ;
436 [label=<gini = 0.0<br/>samples = 12<br/>value = [23, 0]<br/>class = 2>, fillcolor="#e58139"] ;
42 -> 436 ;
437 [label=<gini = 0.0<br/>samples = 1<br/>value = [0, 1]<br/>class = 1>, fillcolor="#399de5"] ;
41 -> 437 ;
438 [label=<gini = 0.0<br/>samples = 1<br/>value = [0, 1]<br/>class = 1>, fillcolor="#399de5"] ;
40 -> 438 ;
439 [label=<gini = 0.0<br/>samples = 1<br/>value = [0, 2]<br/>class = 1>, fillcolor="#399de5"] ;
39 -> 439 ;
440 [label=<gini = 0.0<br/>samples = 1<br/>value = [0, 2]<br/>class = 1>, fillcolor="#399de5"] ;
38 -> 440 ;
441 [label=<gini = 0.0<br/>samples = 1<br/>value = [0, 4]<br/>class = 1>, fillcolor="#399de5"] ;
37 -> 441 ;
442 [label=<inconspicu &le; 0.5<br/>gini = 0.459<br/>samples = 11<br/>value = [5, 9]<br/>class = 1>, fillcolor="#a7d3f3"] ;
36 -> 442 ;
443 [label=<compar &le; 0.5<br/>gini = 0.473<br/>samples = 10<br/>value = [5, 8]<br/>class = 1>, fillcolor="#b5daf5"] ;
442 -> 443 ;
444 [label=<poor &le; 0.5<br/>gini = 0.397<br/>samples = 9<br/>value = [3, 8]<br/>class = 1>, fillcolor="#83c2ef"] ;
443 -> 444 ;
445 [label=<last &le; 0.5<br/>gini = 0.32<br/>samples = 8<br/>value = [2, 8]<br/>class = 1>, fillcolor="#6ab6ec"] ;
444 -> 445 ;
446 [label=<could &le; 0.5<br/>gini = 0.346<br/>samples = 7<br/>value = [2, 7]<br/>class = 1>, fillcolor="#72b9ec"] ;
445 -> 446 ;
447 [label=<crisp &le; 0.5<br/>gini = 0.219<br/>samples = 6<br/>value = [1, 7]<br/>class = 1>, fillcolor="#55abe9"] ;
446 -> 447 ;
448 [label=<muddi &le; 0.5<br/>gini = 0.245<br/>samples = 5<br/>value = [1, 6]<br/>class = 1>, fillcolor="#5aade9"] ;
447 -> 448 ;
449 [label=<gini = 0.0<br/>samples = 4<br/>value = [0, 6]<br/>class = 1>, fillcolor="#399de5"] ;
448 -> 449 ;
450 [label=<gini = 0.0<br/>samples = 1<br/>value = [1, 0]<br/>class = 2>, fillcolor="#e58139"] ;
448 -> 450 ;
451 [label=<gini = 0.0<br/>samples = 1<br/>value = [0, 1]<br/>class = 1>, fillcolor="#399de5"] ;
447 -> 451 ;
452 [label=<gini = 0.0<br/>samples = 1<br/>value = [1, 0]<br/>class = 2>, fillcolor="#e58139"] ;
446 -> 452 ;
453 [label=<gini = 0.0<br/>samples = 1<br/>value = [0, 1]<br/>class = 1>, fillcolor="#399de5"] ;
445 -> 453 ;
454 [label=<gini = 0.0<br/>samples = 1<br/>value = [1, 0]<br/>class = 2>, fillcolor="#e58139"] ;
444 -> 454 ;
455 [label=<gini = 0.0<br/>samples = 1<br/>value = [2, 0]<br/>class = 2>, fillcolor="#e58139"] ;
443 -> 455 ;
456 [label=<gini = 0.0<br/>samples = 1<br/>value = [0, 1]<br/>class = 1>, fillcolor="#399de5"] ;
442 -> 456 ;
457 [label=<either &le; 0.5<br/>gini = 0.227<br/>samples = 27<br/>value = [40, 6]<br/>class = 2>, fillcolor="#e99457"] ;
35 -> 457 ;
458 [label=<nokia &le; 0.5<br/>gini = 0.231<br/>samples = 26<br/>value = [39, 6]<br/>class = 2>, fillcolor="#e99457"] ;
457 -> 458 ;
459 [label=<perfectli &le; 0.5<br/>gini = 0.245<br/>samples = 24<br/>value = [36, 6]<br/>class = 2>, fillcolor="#e9965a"] ;
458 -> 459 ;
460 [label=<lc &le; 0.5<br/>gini = 0.214<br/>samples = 23<br/>value = [36, 5]<br/>class = 2>, fillcolor="#e99254"] ;
459 -> 460 ;
461 [label=<europ &le; 0.5<br/>gini = 0.229<br/>samples = 22<br/>value = [33, 5]<br/>class = 2>, fillcolor="#e99457"] ;
460 -> 461 ;
462 [label=<skype &le; 0.5<br/>gini = 0.239<br/>samples = 21<br/>value = [31, 5]<br/>class = 2>, fillcolor="#e99559"] ;
461 -> 462 ;
463 [label=<tape &le; 0.5<br/>gini = 0.257<br/>samples = 20<br/>value = [28, 5]<br/>class = 2>, fillcolor="#ea985c"] ;
462 -> 463 ;
464 [label=<within &le; 0.5<br/>gini = 0.278<br/>samples = 19<br/>value = [25, 5]<br/>class = 2>, fillcolor="#ea9a61"] ;
463 -> 464 ;
465 [label=<well &le; 0.5<br/>gini = 0.293<br/>samples = 18<br/>value = [23, 5]<br/>class = 2>, fillcolor="#eb9c64"] ;
464 -> 465 ;
466 [label=<pocket &le; 0.5<br/>gini = 0.33<br/>samples = 16<br/>value = [19, 5]<br/>class = 2>, fillcolor="#eca26d"] ;
465 -> 466 ;
467 [label=<charger &le; 0.5<br/>gini = 0.34<br/>samples = 15<br/>value = [18, 5]<br/>class = 2>, fillcolor="#eca470"] ;
466 -> 467 ;
468 [label=<plug &le; 0.5<br/>gini = 0.401<br/>samples = 11<br/>value = [13, 5]<br/>class = 2>, fillcolor="#efb185"] ;
467 -> 468 ;
469 [label=<answer &le; 0.5<br/>gini = 0.444<br/>samples = 10<br/>value = [10, 5]<br/>class = 2>, fillcolor="#f2c09c"] ;
468 -> 469 ;
470 [label=<fine &le; 0.5<br/>gini = 0.473<br/>samples = 9<br/>value = [8, 5]<br/>class = 2>, fillcolor="#f5d0b5"] ;
469 -> 470 ;
471 [label=<phone &le; 0.5<br/>gini = 0.444<br/>samples = 8<br/>value = [8, 4]<br/>class = 2>, fillcolor="#f2c09c"] ;
470 -> 471 ;
472 [label=<smartphon &le; 0.5<br/>gini = 0.463<br/>samples = 7<br/>value = [7, 4]<br/>class = 2>, fillcolor="#f4c9aa"] ;
471 -> 472 ;
473 [label=<unfortun &le; 0.5<br/>gini = 0.5<br/>samples = 6<br/>value = [4, 4]<br/>class = 2>, fillcolor="#ffffff"] ;
472 -> 473 ;
474 [label=<describ &le; 0.5<br/>gini = 0.49<br/>samples = 5<br/>value = [3, 4]<br/>class = 1>, fillcolor="#cee6f8"] ;
473 -> 474 ;
475 [label=<gini = 0.5<br/>samples = 4<br/>value = [3, 3]<br/>class = 2>, fillcolor="#ffffff"] ;
474 -> 475 ;
476 [label=<gini = 0.0<br/>samples = 1<br/>value = [0, 1]<br/>class = 1>, fillcolor="#399de5"] ;
474 -> 476 ;
477 [label=<gini = 0.0<br/>samples = 1<br/>value = [1, 0]<br/>class = 2>, fillcolor="#e58139"] ;
473 -> 477 ;
478 [label=<gini = 0.0<br/>samples = 1<br/>value = [3, 0]<br/>class = 2>, fillcolor="#e58139"] ;
472 -> 478 ;
479 [label=<gini = 0.0<br/>samples = 1<br/>value = [1, 0]<br/>class = 2>, fillcolor="#e58139"] ;
471 -> 479 ;
480 [label=<gini = 0.0<br/>samples = 1<br/>value = [0, 1]<br/>class = 1>, fillcolor="#399de5"] ;
470 -> 480 ;
481 [label=<gini = 0.0<br/>samples = 1<br/>value = [2, 0]<br/>class = 2>, fillcolor="#e58139"] ;
469 -> 481 ;
482 [label=<gini = 0.0<br/>samples = 1<br/>value = [3, 0]<br/>class = 2>, fillcolor="#e58139"] ;
468 -> 482 ;
483 [label=<gini = 0.0<br/>samples = 4<br/>value = [5, 0]<br/>class = 2>, fillcolor="#e58139"] ;
467 -> 483 ;
484 [label=<gini = 0.0<br/>samples = 1<br/>value = [1, 0]<br/>class = 2>, fillcolor="#e58139"] ;
466 -> 484 ;
485 [label=<gini = 0.0<br/>samples = 2<br/>value = [4, 0]<br/>class = 2>, fillcolor="#e58139"] ;
465 -> 485 ;
486 [label=<gini = 0.0<br/>samples = 1<br/>value = [2, 0]<br/>class = 2>, fillcolor="#e58139"] ;
464 -> 486 ;
487 [label=<gini = 0.0<br/>samples = 1<br/>value = [3, 0]<br/>class = 2>, fillcolor="#e58139"] ;
463 -> 487 ;
488 [label=<gini = 0.0<br/>samples = 1<br/>value = [3, 0]<br/>class = 2>, fillcolor="#e58139"] ;
462 -> 488 ;
489 [label=<gini = 0.0<br/>samples = 1<br/>value = [2, 0]<br/>class = 2>, fillcolor="#e58139"] ;
461 -> 489 ;
490 [label=<gini = 0.0<br/>samples = 1<br/>value = [3, 0]<br/>class = 2>, fillcolor="#e58139"] ;
460 -> 490 ;
491 [label=<gini = 0.0<br/>samples = 1<br/>value = [0, 1]<br/>class = 1>, fillcolor="#399de5"] ;
459 -> 491 ;
492 [label=<gini = 0.0<br/>samples = 2<br/>value = [3, 0]<br/>class = 2>, fillcolor="#e58139"] ;
458 -> 492 ;
493 [label=<gini = 0.0<br/>samples = 1<br/>value = [1, 0]<br/>class = 2>, fillcolor="#e58139"] ;
457 -> 493 ;
494 [label=<gini = 0.0<br/>samples = 1<br/>value = [0, 2]<br/>class = 1>, fillcolor="#399de5"] ;
34 -> 494 ;
495 [label=<qualiti &le; 0.5<br/>gini = 0.278<br/>samples = 5<br/>value = [1, 5]<br/>class = 1>, fillcolor="#61b1ea"] ;
33 -> 495 ;
496 [label=<phone &le; 0.5<br/>gini = 0.375<br/>samples = 4<br/>value = [1, 3]<br/>class = 1>, fillcolor="#7bbeee"] ;
495 -> 496 ;
497 [label=<small &le; 0.5<br/>gini = 0.5<br/>samples = 2<br/>value = [1, 1]<br/>class = 2>, fillcolor="#ffffff"] ;
496 -> 497 ;
498 [label=<gini = 0.0<br/>samples = 1<br/>value = [1, 0]<br/>class = 2>, fillcolor="#e58139"] ;
497 -> 498 ;
499 [label=<gini = 0.0<br/>samples = 1<br/>value = [0, 1]<br/>class = 1>, fillcolor="#399de5"] ;
497 -> 499 ;
500 [label=<gini = 0.0<br/>samples = 2<br/>value = [0, 2]<br/>class = 1>, fillcolor="#399de5"] ;
496 -> 500 ;
501 [label=<gini = 0.0<br/>samples = 1<br/>value = [0, 2]<br/>class = 1>, fillcolor="#399de5"] ;
495 -> 501 ;
502 [label=<gini = 0.0<br/>samples = 3<br/>value = [0, 4]<br/>class = 1>, fillcolor="#399de5"] ;
32 -> 502 ;
503 [label=<gini = 0.0<br/>samples = 1<br/>value = [0, 2]<br/>class = 1>, fillcolor="#399de5"] ;
31 -> 503 ;
504 [label=<origin &le; 0.5<br/>gini = 0.278<br/>samples = 4<br/>value = [1, 5]<br/>class = 1>, fillcolor="#61b1ea"] ;
30 -> 504 ;
505 [label=<thing &le; 0.5<br/>gini = 0.5<br/>samples = 2<br/>value = [1, 1]<br/>class = 2>, fillcolor="#ffffff"] ;
504 -> 505 ;
506 [label=<gini = 0.0<br/>samples = 1<br/>value = [0, 1]<br/>class = 1>, fillcolor="#399de5"] ;
505 -> 506 ;
507 [label=<gini = 0.0<br/>samples = 1<br/>value = [1, 0]<br/>class = 2>, fillcolor="#e58139"] ;
505 -> 507 ;
508 [label=<gini = 0.0<br/>samples = 2<br/>value = [0, 4]<br/>class = 1>, fillcolor="#399de5"] ;
504 -> 508 ;
509 [label=<gini = 0.0<br/>samples = 1<br/>value = [0, 2]<br/>class = 1>, fillcolor="#399de5"] ;
29 -> 509 ;
510 [label=<gini = 0.0<br/>samples = 1<br/>value = [0, 2]<br/>class = 1>, fillcolor="#399de5"] ;
28 -> 510 ;
511 [label=<break &le; 0.5<br/>gini = 0.346<br/>samples = 5<br/>value = [2, 7]<br/>class = 1>, fillcolor="#72b9ec"] ;
27 -> 511 ;
512 [label=<wasnt &le; 0.5<br/>gini = 0.219<br/>samples = 4<br/>value = [1, 7]<br/>class = 1>, fillcolor="#55abe9"] ;
511 -> 512 ;
513 [label=<gini = 0.0<br/>samples = 3<br/>value = [0, 7]<br/>class = 1>, fillcolor="#399de5"] ;
512 -> 513 ;
514 [label=<gini = 0.0<br/>samples = 1<br/>value = [1, 0]<br/>class = 2>, fillcolor="#e58139"] ;
512 -> 514 ;
515 [label=<gini = 0.0<br/>samples = 1<br/>value = [1, 0]<br/>class = 2>, fillcolor="#e58139"] ;
511 -> 515 ;
516 [label=<gini = 0.0<br/>samples = 1<br/>value = [0, 2]<br/>class = 1>, fillcolor="#399de5"] ;
26 -> 516 ;
517 [label=<supertooth &le; 0.5<br/>gini = 0.245<br/>samples = 4<br/>value = [1, 6]<br/>class = 1>, fillcolor="#5aade9"] ;
25 -> 517 ;
518 [label=<good &le; 0.5<br/>gini = 0.375<br/>samples = 3<br/>value = [1, 3]<br/>class = 1>, fillcolor="#7bbeee"] ;
517 -> 518 ;
519 [label=<fall &le; 0.5<br/>gini = 0.5<br/>samples = 2<br/>value = [1, 1]<br/>class = 2>, fillcolor="#ffffff"] ;
518 -> 519 ;
520 [label=<gini = 0.0<br/>samples = 1<br/>value = [0, 1]<br/>class = 1>, fillcolor="#399de5"] ;
519 -> 520 ;
521 [label=<gini = 0.0<br/>samples = 1<br/>value = [1, 0]<br/>class = 2>, fillcolor="#e58139"] ;
519 -> 521 ;
522 [label=<gini = 0.0<br/>samples = 1<br/>value = [0, 2]<br/>class = 1>, fillcolor="#399de5"] ;
518 -> 522 ;
523 [label=<gini = 0.0<br/>samples = 1<br/>value = [0, 3]<br/>class = 1>, fillcolor="#399de5"] ;
517 -> 523 ;
524 [label=<gini = 0.0<br/>samples = 2<br/>value = [0, 4]<br/>class = 1>, fillcolor="#399de5"] ;
24 -> 524 ;
525 [label=<gini = 0.0<br/>samples = 2<br/>value = [0, 3]<br/>class = 1>, fillcolor="#399de5"] ;
23 -> 525 ;
526 [label=<gini = 0.0<br/>samples = 3<br/>value = [0, 6]<br/>class = 1>, fillcolor="#399de5"] ;
22 -> 526 ;
527 [label=<gini = 0.0<br/>samples = 1<br/>value = [0, 6]<br/>class = 1>, fillcolor="#399de5"] ;
21 -> 527 ;
528 [label=<gini = 0.0<br/>samples = 11<br/>value = [0, 16]<br/>class = 1>, fillcolor="#399de5"] ;
20 -> 528 ;
529 [label=<would &le; 0.5<br/>gini = 0.346<br/>samples = 5<br/>value = [2, 7]<br/>class = 1>, fillcolor="#72b9ec"] ;
19 -> 529 ;
530 [label=<hold &le; 0.5<br/>gini = 0.219<br/>samples = 4<br/>value = [1, 7]<br/>class = 1>, fillcolor="#55abe9"] ;
529 -> 530 ;
531 [label=<get &le; 0.5<br/>gini = 0.32<br/>samples = 3<br/>value = [1, 4]<br/>class = 1>, fillcolor="#6ab6ec"] ;
530 -> 531 ;
532 [label=<new &le; 0.5<br/>gini = 0.444<br/>samples = 2<br/>value = [1, 2]<br/>class = 1>, fillcolor="#9ccef2"] ;
531 -> 532 ;
533 [label=<gini = 0.0<br/>samples = 1<br/>value = [1, 0]<br/>class = 2>, fillcolor="#e58139"] ;
532 -> 533 ;
534 [label=<gini = 0.0<br/>samples = 1<br/>value = [0, 2]<br/>class = 1>, fillcolor="#399de5"] ;
532 -> 534 ;
535 [label=<gini = 0.0<br/>samples = 1<br/>value = [0, 2]<br/>class = 1>, fillcolor="#399de5"] ;
531 -> 535 ;
536 [label=<gini = 0.0<br/>samples = 1<br/>value = [0, 3]<br/>class = 1>, fillcolor="#399de5"] ;
530 -> 536 ;
537 [label=<gini = 0.0<br/>samples = 1<br/>value = [1, 0]<br/>class = 2>, fillcolor="#e58139"] ;
529 -> 537 ;
538 [label=<gini = 0.0<br/>samples = 1<br/>value = [0, 3]<br/>class = 1>, fillcolor="#399de5"] ;
18 -> 538 ;
539 [label=<gini = 0.0<br/>samples = 3<br/>value = [0, 4]<br/>class = 1>, fillcolor="#399de5"] ;
17 -> 539 ;
540 [label=<gini = 0.0<br/>samples = 5<br/>value = [6, 0]<br/>class = 2>, fillcolor="#e58139"] ;
16 -> 540 ;
541 [label=<expens &le; 0.5<br/>gini = 0.278<br/>samples = 4<br/>value = [1, 5]<br/>class = 1>, fillcolor="#61b1ea"] ;
15 -> 541 ;
542 [label=<seller &le; 0.5<br/>gini = 0.375<br/>samples = 3<br/>value = [1, 3]<br/>class = 1>, fillcolor="#7bbeee"] ;
541 -> 542 ;
543 [label=<part &le; 0.5<br/>gini = 0.5<br/>samples = 2<br/>value = [1, 1]<br/>class = 2>, fillcolor="#ffffff"] ;
542 -> 543 ;
544 [label=<gini = 0.0<br/>samples = 1<br/>value = [0, 1]<br/>class = 1>, fillcolor="#399de5"] ;
543 -> 544 ;
545 [label=<gini = 0.0<br/>samples = 1<br/>value = [1, 0]<br/>class = 2>, fillcolor="#e58139"] ;
543 -> 545 ;
546 [label=<gini = 0.0<br/>samples = 1<br/>value = [0, 2]<br/>class = 1>, fillcolor="#399de5"] ;
542 -> 546 ;
547 [label=<gini = 0.0<br/>samples = 1<br/>value = [0, 2]<br/>class = 1>, fillcolor="#399de5"] ;
541 -> 547 ;
548 [label=<gini = 0.0<br/>samples = 2<br/>value = [0, 3]<br/>class = 1>, fillcolor="#399de5"] ;
14 -> 548 ;
549 [label=<gini = 0.0<br/>samples = 3<br/>value = [0, 4]<br/>class = 1>, fillcolor="#399de5"] ;
13 -> 549 ;
550 [label=<gini = 0.0<br/>samples = 1<br/>value = [0, 5]<br/>class = 1>, fillcolor="#399de5"] ;
12 -> 550 ;
551 [label=<hand &le; 0.5<br/>gini = 0.32<br/>samples = 3<br/>value = [1, 4]<br/>class = 1>, fillcolor="#6ab6ec"] ;
11 -> 551 ;
552 [label=<commun &le; 1.0<br/>gini = 0.444<br/>samples = 2<br/>value = [1, 2]<br/>class = 1>, fillcolor="#9ccef2"] ;
551 -> 552 ;
553 [label=<gini = 0.0<br/>samples = 1<br/>value = [0, 2]<br/>class = 1>, fillcolor="#399de5"] ;
552 -> 553 ;
554 [label=<gini = 0.0<br/>samples = 1<br/>value = [1, 0]<br/>class = 2>, fillcolor="#e58139"] ;
552 -> 554 ;
555 [label=<gini = 0.0<br/>samples = 1<br/>value = [0, 2]<br/>class = 1>, fillcolor="#399de5"] ;
551 -> 555 ;
556 [label=<gini = 0.0<br/>samples = 2<br/>value = [0, 4]<br/>class = 1>, fillcolor="#399de5"] ;
10 -> 556 ;
557 [label=<gini = 0.0<br/>samples = 3<br/>value = [0, 5]<br/>class = 1>, fillcolor="#399de5"] ;
9 -> 557 ;
558 [label=<gini = 0.0<br/>samples = 9<br/>value = [0, 15]<br/>class = 1>, fillcolor="#399de5"] ;
8 -> 558 ;
559 [label=<gini = 0.0<br/>samples = 2<br/>value = [0, 5]<br/>class = 1>, fillcolor="#399de5"] ;
7 -> 559 ;
560 [label=<gini = 0.0<br/>samples = 3<br/>value = [6, 0]<br/>class = 2>, fillcolor="#e58139"] ;
6 -> 560 ;
561 [label=<fm &le; 0.5<br/>gini = 0.111<br/>samples = 12<br/>value = [1, 16]<br/>class = 1>, fillcolor="#45a3e7"] ;
5 -> 561 ;
562 [label=<howeverth &le; 0.5<br/>gini = 0.117<br/>samples = 11<br/>value = [1, 15]<br/>class = 1>, fillcolor="#46a4e7"] ;
561 -> 562 ;
563 [label=<gini = 0.0<br/>samples = 10<br/>value = [0, 15]<br/>class = 1>, fillcolor="#399de5"] ;
562 -> 563 ;
564 [label=<gini = 0.0<br/>samples = 1<br/>value = [1, 0]<br/>class = 2>, fillcolor="#e58139"] ;
562 -> 564 ;
565 [label=<gini = 0.0<br/>samples = 1<br/>value = [0, 1]<br/>class = 1>, fillcolor="#399de5"] ;
561 -> 565 ;
566 [label=<differ &le; 0.5<br/>gini = 0.413<br/>samples = 12<br/>value = [7, 17]<br/>class = 1>, fillcolor="#8bc5f0"] ;
4 -> 566 ;
567 [label=<moto &le; 0.5<br/>gini = 0.434<br/>samples = 11<br/>value = [7.0, 15.0]<br/>class = 1>, fillcolor="#95cbf1"] ;
566 -> 567 ;
568 [label=<impress &le; 0.5<br/>gini = 0.444<br/>samples = 10<br/>value = [7, 14]<br/>class = 1>, fillcolor="#9ccef2"] ;
567 -> 568 ;
569 [label=<anyon &le; 0.5<br/>gini = 0.42<br/>samples = 9<br/>value = [6, 14]<br/>class = 1>, fillcolor="#8ec7f0"] ;
568 -> 569 ;
570 [label=<product &le; 0.5<br/>gini = 0.346<br/>samples = 8<br/>value = [4, 14]<br/>class = 1>, fillcolor="#72b9ec"] ;
569 -> 570 ;
571 [label=<cool &le; 0.5<br/>gini = 0.219<br/>samples = 7<br/>value = [2, 14]<br/>class = 1>, fillcolor="#55abe9"] ;
570 -> 571 ;
572 [label=<would &le; 0.5<br/>gini = 0.231<br/>samples = 6<br/>value = [2, 13]<br/>class = 1>, fillcolor="#57ace9"] ;
571 -> 572 ;
573 [label=<never &le; 0.5<br/>gini = 0.48<br/>samples = 3<br/>value = [2, 3]<br/>class = 1>, fillcolor="#bddef6"] ;
572 -> 573 ;
574 [label=<could &le; 0.5<br/>gini = 0.444<br/>samples = 2<br/>value = [2, 1]<br/>class = 2>, fillcolor="#f2c09c"] ;
573 -> 574 ;
575 [label=<gini = 0.0<br/>samples = 1<br/>value = [0, 1]<br/>class = 1>, fillcolor="#399de5"] ;
574 -> 575 ;
576 [label=<gini = 0.0<br/>samples = 1<br/>value = [2, 0]<br/>class = 2>, fillcolor="#e58139"] ;
574 -> 576 ;
577 [label=<gini = 0.0<br/>samples = 1<br/>value = [0, 2]<br/>class = 1>, fillcolor="#399de5"] ;
573 -> 577 ;
578 [label=<gini = 0.0<br/>samples = 3<br/>value = [0, 10]<br/>class = 1>, fillcolor="#399de5"] ;
572 -> 578 ;
579 [label=<gini = 0.0<br/>samples = 1<br/>value = [0, 1]<br/>class = 1>, fillcolor="#399de5"] ;
571 -> 579 ;
580 [label=<gini = 0.0<br/>samples = 1<br/>value = [2, 0]<br/>class = 2>, fillcolor="#e58139"] ;
570 -> 580 ;
581 [label=<gini = 0.0<br/>samples = 1<br/>value = [2, 0]<br/>class = 2>, fillcolor="#e58139"] ;
569 -> 581 ;
582 [label=<gini = 0.0<br/>samples = 1<br/>value = [1, 0]<br/>class = 2>, fillcolor="#e58139"] ;
568 -> 582 ;
583 [label=<gini = 0.0<br/>samples = 1<br/>value = [0, 1]<br/>class = 1>, fillcolor="#399de5"] ;
567 -> 583 ;
584 [label=<gini = 0.0<br/>samples = 1<br/>value = [0, 2]<br/>class = 1>, fillcolor="#399de5"] ;
566 -> 584 ;
585 [label=<gini = 0.0<br/>samples = 4<br/>value = [0, 4]<br/>class = 1>, fillcolor="#399de5"] ;
3 -> 585 ;
586 [label=<cannot &le; 0.5<br/>gini = 0.229<br/>samples = 49<br/>value = [10, 66]<br/>class = 1>, fillcolor="#57ace9"] ;
2 -> 586 ;
587 [label=<talk &le; 0.5<br/>gini = 0.234<br/>samples = 48<br/>value = [10, 64]<br/>class = 1>, fillcolor="#58ace9"] ;
586 -> 587 ;
588 [label=<wellwel &le; 0.5<br/>gini = 0.198<br/>samples = 47<br/>value = [8, 64]<br/>class = 1>, fillcolor="#52a9e8"] ;
587 -> 588 ;
589 [label=<time &le; 0.5<br/>gini = 0.202<br/>samples = 46<br/>value = [8, 62]<br/>class = 1>, fillcolor="#53aae8"] ;
588 -> 589 ;
590 [label=<broke &le; 0.5<br/>gini = 0.219<br/>samples = 43<br/>value = [8, 56]<br/>class = 1>, fillcolor="#55abe9"] ;
589 -> 590 ;
591 [label=<red &le; 0.5<br/>gini = 0.15<br/>samples = 42<br/>value = [5, 56]<br/>class = 1>, fillcolor="#4ba6e7"] ;
590 -> 591 ;
592 [label=<sound &le; 0.5<br/>gini = 0.155<br/>samples = 41<br/>value = [5, 54]<br/>class = 1>, fillcolor="#4ba6e7"] ;
591 -> 592 ;
593 [label=<nearli &le; 0.5<br/>gini = 0.163<br/>samples = 39<br/>value = [5, 51]<br/>class = 1>, fillcolor="#4ca7e8"] ;
592 -> 593 ;
594 [label=<lot &le; 0.5<br/>gini = 0.165<br/>samples = 38<br/>value = [5, 50]<br/>class = 1>, fillcolor="#4da7e8"] ;
593 -> 594 ;
595 [label=<entertain &le; 0.5<br/>gini = 0.171<br/>samples = 37<br/>value = [5, 48]<br/>class = 1>, fillcolor="#4ea7e8"] ;
594 -> 595 ;
596 [label=<price &le; 0.5<br/>gini = 0.174<br/>samples = 36<br/>value = [5, 47]<br/>class = 1>, fillcolor="#4ea7e8"] ;
595 -> 596 ;
597 [label=<year &le; 0.5<br/>gini = 0.147<br/>samples = 34<br/>value = [4, 46]<br/>class = 1>, fillcolor="#4aa6e7"] ;
596 -> 597 ;
598 [label=<batteri &le; 0.5<br/>gini = 0.117<br/>samples = 32<br/>value = [3, 45]<br/>class = 1>, fillcolor="#46a4e7"] ;
597 -> 598 ;
599 [label=<devic &le; 0.5<br/>gini = 0.124<br/>samples = 29<br/>value = [3, 42]<br/>class = 1>, fillcolor="#47a4e7"] ;
598 -> 599 ;
600 [label=<lightweight &le; 0.5<br/>gini = 0.133<br/>samples = 27<br/>value = [3, 39]<br/>class = 1>, fillcolor="#48a5e7"] ;
599 -> 600 ;
601 [label=<work &le; 0.5<br/>gini = 0.136<br/>samples = 26<br/>value = [3, 38]<br/>class = 1>, fillcolor="#49a5e7"] ;
600 -> 601 ;
602 [label=<would &le; 0.5<br/>gini = 0.114<br/>samples = 20<br/>value = [2, 31]<br/>class = 1>, fillcolor="#46a3e7"] ;
601 -> 602 ;
603 [label=<earpiec &le; 0.5<br/>gini = 0.121<br/>samples = 19<br/>value = [2, 29]<br/>class = 1>, fillcolor="#47a4e7"] ;
602 -> 603 ;
604 [label=<realli &le; 0.5<br/>gini = 0.124<br/>samples = 18<br/>value = [2, 28]<br/>class = 1>, fillcolor="#47a4e7"] ;
603 -> 604 ;
605 [label=<qualiti &le; 0.5<br/>gini = 0.128<br/>samples = 17<br/>value = [2, 27]<br/>class = 1>, fillcolor="#48a4e7"] ;
604 -> 605 ;
606 [label=<sure &le; 0.5<br/>gini = 0.133<br/>samples = 16<br/>value = [2, 26]<br/>class = 1>, fillcolor="#48a5e7"] ;
605 -> 606 ;
607 [label=<look &le; 0.5<br/>gini = 0.142<br/>samples = 15<br/>value = [2, 24]<br/>class = 1>, fillcolor="#49a5e7"] ;
606 -> 607 ;
608 [label=<fast &le; 0.5<br/>gini = 0.165<br/>samples = 13<br/>value = [2, 20]<br/>class = 1>, fillcolor="#4da7e8"] ;
607 -> 608 ;
609 [label=<headset &le; 0.5<br/>gini = 0.172<br/>samples = 12<br/>value = [2, 19]<br/>class = 1>, fillcolor="#4ea7e8"] ;
608 -> 609 ;
610 [label=<gini = 0.0<br/>samples = 11<br/>value = [0, 19]<br/>class = 1>, fillcolor="#399de5"] ;
609 -> 610 ;
611 [label=<gini = 0.0<br/>samples = 1<br/>value = [2, 0]<br/>class = 2>, fillcolor="#e58139"] ;
609 -> 611 ;
612 [label=<gini = 0.0<br/>samples = 1<br/>value = [0, 1]<br/>class = 1>, fillcolor="#399de5"] ;
608 -> 612 ;
613 [label=<gini = 0.0<br/>samples = 2<br/>value = [0, 4]<br/>class = 1>, fillcolor="#399de5"] ;
607 -> 613 ;
614 [label=<gini = 0.0<br/>samples = 1<br/>value = [0, 2]<br/>class = 1>, fillcolor="#399de5"] ;
606 -> 614 ;
615 [label=<gini = 0.0<br/>samples = 1<br/>value = [0, 1]<br/>class = 1>, fillcolor="#399de5"] ;
605 -> 615 ;
616 [label=<gini = 0.0<br/>samples = 1<br/>value = [0, 1]<br/>class = 1>, fillcolor="#399de5"] ;
604 -> 616 ;
617 [label=<gini = 0.0<br/>samples = 1<br/>value = [0, 1]<br/>class = 1>, fillcolor="#399de5"] ;
603 -> 617 ;
618 [label=<gini = 0.0<br/>samples = 1<br/>value = [0, 2]<br/>class = 1>, fillcolor="#399de5"] ;
602 -> 618 ;
619 [label=<fine &le; 0.5<br/>gini = 0.219<br/>samples = 6<br/>value = [1, 7]<br/>class = 1>, fillcolor="#55abe9"] ;
601 -> 619 ;
620 [label=<gini = 0.0<br/>samples = 5<br/>value = [0, 7]<br/>class = 1>, fillcolor="#399de5"] ;
619 -> 620 ;
621 [label=<gini = 0.0<br/>samples = 1<br/>value = [1, 0]<br/>class = 2>, fillcolor="#e58139"] ;
619 -> 621 ;
622 [label=<gini = 0.0<br/>samples = 1<br/>value = [0, 1]<br/>class = 1>, fillcolor="#399de5"] ;
600 -> 622 ;
623 [label=<gini = 0.0<br/>samples = 2<br/>value = [0, 3]<br/>class = 1>, fillcolor="#399de5"] ;
599 -> 623 ;
624 [label=<gini = 0.0<br/>samples = 3<br/>value = [0, 3]<br/>class = 1>, fillcolor="#399de5"] ;
598 -> 624 ;
625 [label=<ive &le; 0.5<br/>gini = 0.5<br/>samples = 2<br/>value = [1, 1]<br/>class = 2>, fillcolor="#ffffff"] ;
597 -> 625 ;
626 [label=<gini = 0.0<br/>samples = 1<br/>value = [1, 0]<br/>class = 2>, fillcolor="#e58139"] ;
625 -> 626 ;
627 [label=<gini = 0.0<br/>samples = 1<br/>value = [0, 1]<br/>class = 1>, fillcolor="#399de5"] ;
625 -> 627 ;
628 [label=<also &le; 0.5<br/>gini = 0.5<br/>samples = 2<br/>value = [1, 1]<br/>class = 2>, fillcolor="#ffffff"] ;
596 -> 628 ;
629 [label=<gini = 0.0<br/>samples = 1<br/>value = [1, 0]<br/>class = 2>, fillcolor="#e58139"] ;
628 -> 629 ;
630 [label=<gini = 0.0<br/>samples = 1<br/>value = [0, 1]<br/>class = 1>, fillcolor="#399de5"] ;
628 -> 630 ;
631 [label=<gini = 0.0<br/>samples = 1<br/>value = [0, 1]<br/>class = 1>, fillcolor="#399de5"] ;
595 -> 631 ;
632 [label=<gini = 0.0<br/>samples = 1<br/>value = [0, 2]<br/>class = 1>, fillcolor="#399de5"] ;
594 -> 632 ;
633 [label=<gini = 0.0<br/>samples = 1<br/>value = [0, 1]<br/>class = 1>, fillcolor="#399de5"] ;
593 -> 633 ;
634 [label=<gini = 0.0<br/>samples = 2<br/>value = [0, 3]<br/>class = 1>, fillcolor="#399de5"] ;
592 -> 634 ;
635 [label=<gini = 0.0<br/>samples = 1<br/>value = [0, 2]<br/>class = 1>, fillcolor="#399de5"] ;
591 -> 635 ;
636 [label=<gini = 0.0<br/>samples = 1<br/>value = [3, 0]<br/>class = 2>, fillcolor="#e58139"] ;
590 -> 636 ;
637 [label=<gini = 0.0<br/>samples = 3<br/>value = [0, 6]<br/>class = 1>, fillcolor="#399de5"] ;
589 -> 637 ;
638 [label=<gini = 0.0<br/>samples = 1<br/>value = [0, 2]<br/>class = 1>, fillcolor="#399de5"] ;
588 -> 638 ;
639 [label=<gini = 0.0<br/>samples = 1<br/>value = [2, 0]<br/>class = 2>, fillcolor="#e58139"] ;
587 -> 639 ;
640 [label=<gini = 0.0<br/>samples = 1<br/>value = [0, 2]<br/>class = 1>, fillcolor="#399de5"] ;
586 -> 640 ;
641 [label=<gini = 0.0<br/>samples = 2<br/>value = [0, 6]<br/>class = 1>, fillcolor="#399de5"] ;
1 -> 641 ;
642 [label=<gini = 0.0<br/>samples = 3<br/>value = [0, 3]<br/>class = 1>, fillcolor="#399de5"] ;
0 -> 642 [labeldistance=2.5, labelangle=-45, headlabel="False"] ;
}